{"learner":{"attributes":{"scikit_learn":"{\"_estimator_type\": \"classifier\"}"},"feature_names":["anchor_dist","orientation_angle_deg"],"feature_types":["float","float"],"gradient_booster":{"model":{"gbtree_model_param":{"num_parallel_tree":"1","num_trees":"500"},"iteration_indptr":[0,1,2,3,4,5,6,7,8,9,10,11,12,13,14,15,16,17,18,19,20,21,22,23,24,25,26,27,28,29,30,31,32,33,34,35,36,37,38,39,40,41,42,43,44,45,46,47,48,49,50,51,52,53,54,55,56,57,58,59,60,61,62,63,64,65,66,67,68,69,70,71,72,73,74,75,76,77,78,79,80,81,82,83,84,85,86,87,88,89,90,91,92,93,94,95,96,97,98,99,100,101,102,103,104,105,106,107,108,109,110,111,112,113,114,115,116,117,118,119,120,121,122,123,124,125,126,127,128,129,130,131,132,133,134,135,136,137,138,139,140,141,142,143,144,145,146,147,148,149,150,151,152,153,154,155,156,157,158,159,160,161,162,163,164,165,166,167,168,169,170,171,172,173,174,175,176,177,178,179,180,181,182,183,184,185,186,187,188,189,190,191,192,193,194,195,196,197,198,199,200,201,202,203,204,205,206,207,208,209,210,211,212,213,214,215,216,217,218,219,220,221,222,223,224,225,226,227,228,229,230,231,232,233,234,235,236,237,238,239,240,241,242,243,244,245,246,247,248,249,250,251,252,253,254,255,256,257,258,259,260,261,262,263,264,265,266,267,268,269,270,271,272,273,274,275,276,277,278,279,280,281,282,283,284,285,286,287,288,289,290,291,292,293,294,295,296,297,298,299,300,301,302,303,304,305,306,307,308,309,310,311,312,313,314,315,316,317,318,319,320,321,322,323,324,325,326,327,328,329,330,331,332,333,334,335,336,337,338,339,340,341,342,343,344,345,346,347,348,349,350,351,352,353,354,355,356,357,358,359,360,361,362,363,364,365,366,367,368,369,370,371,372,373,374,375,376,377,378,379,380,381,382,383,384,385,386,387,388,389,390,391,392,393,394,395,396,397,398,399,400,401,402,403,404,405,406,407,408,409,410,411,412,413,414,415,416,417,418,419,420,421,422,423,424,425,426,427,428,429,430,431,432,433,434,435,436,437,438,439,440,441,442,443,444,445,446,447,448,449,450,451,452,453,454,455,456,457,458,459,460,461,462,463,464,465,466,467,468,469,470,471,472,473,474,475,476,477,478,479,480,481,482,483,484,485,486,487,488,489,490,491,492,493,494,495,496,497,498,499,500],"tree_info":[0,0,0,0,0,0,0,0,0,0,0,0,0,0,0,0,0,0,0,0,0,0,0,0,0,0,0,0,0,0,0,0,0,0,0,0,0,0,0,0,0,0,0,0,0,0,0,0,0,0,0,0,0,0,0,0,0,0,0,0,0,0,0,0,0,0,0,0,0,0,0,0,0,0,0,0,0,0,0,0,0,0,0,0,0,0,0,0,0,0,0,0,0,0,0,0,0,0,0,0,0,0,0,0,0,0,0,0,0,0,0,0,0,0,0,0,0,0,0,0,0,0,0,0,0,0,0,0,0,0,0,0,0,0,0,0,0,0,0,0,0,0,0,0,0,0,0,0,0,0,0,0,0,0,0,0,0,0,0,0,0,0,0,0,0,0,0,0,0,0,0,0,0,0,0,0,0,0,0,0,0,0,0,0,0,0,0,0,0,0,0,0,0,0,0,0,0,0,0,0,0,0,0,0,0,0,0,0,0,0,0,0,0,0,0,0,0,0,0,0,0,0,0,0,0,0,0,0,0,0,0,0,0,0,0,0,0,0,0,0,0,0,0,0,0,0,0,0,0,0,0,0,0,0,0,0,0,0,0,0,0,0,0,0,0,0,0,0,0,0,0,0,0,0,0,0,0,0,0,0,0,0,0,0,0,0,0,0,0,0,0,0,0,0,0,0,0,0,0,0,0,0,0,0,0,0,0,0,0,0,0,0,0,0,0,0,0,0,0,0,0,0,0,0,0,0,0,0,0,0,0,0,0,0,0,0,0,0,0,0,0,0,0,0,0,0,0,0,0,0,0,0,0,0,0,0,0,0,0,0,0,0,0,0,0,0,0,0,0,0,0,0,0,0,0,0,0,0,0,0,0,0,0,0,0,0,0,0,0,0,0,0,0,0,0,0,0,0,0,0,0,0,0,0,0,0,0,0,0,0,0,0,0,0,0,0,0,0,0,0,0,0,0,0,0,0,0,0,0,0,0,0,0,0,0,0,0,0,0,0,0,0,0,0,0,0,0,0,0,0,0,0,0,0,0,0,0,0,0,0,0,0,0,0,0,0,0,0,0,0,0,0,0,0,0,0,0,0,0,0,0,0,0,0,0,0,0,0,0,0,0,0,0,0,0,0,0,0,0,0],"trees":[{"base_weights":[-3.9319997E-3,-1.9926131E0,1.9916608E0,-9.976777E-2,-7.1428575E-2,5.0769236E-2,9.990668E-2],"categories":[],"categories_nodes":[],"categories_segments":[],"categories_sizes":[],"default_left":[0,0,0,0,0,0,0],"id":0,"left_children":[1,3,5,-1,-1,-1,-1],"loss_changes":[1.7162201E4,5E-1,1.1612305E1,0E0,0E0,0E0,0E0],"parents":[2147483647,0,0,1,1,2,2],"right_children":[2,4,6,-1,-1,-1,-1],"split_conditions":[1.5185005E1,1.2402389E1,2.4857107E1,-9.976777E-2,-7.1428575E-2,5.0769236E-2,9.990668E-2],"split_indices":[0,0,0,0,0,0,0],"split_type":[0,0,0,0,0,0,0],"sum_hessian":[4.3225E3,2.165E3,2.1575E3,2.152E3,1.3E1,1.525E1,2.14225E3],"tree_param":{"num_deleted":"0","num_feature":"2","num_nodes":"7","size_leaf_vector":"1"}},{"base_weights":[8.722759E-3,7.091208E-2,-3.1934255E-1,-8.205851E-2,4.0192592E-1,-2.5965184E-1,-2.6318574E-2,5.2242166E-1,-1.2654026E-1,4.8867434E-1,1.1859399E-1,-1.5746264E-1,-3.2022512E-1,6.745472E-1,2.720621E-1,-2.3056328E-1,-1.2363388E-2,3.1009892E-1,5.670397E-1,1.8622041E-1,4.5008846E-3,-2.294699E-1,-7.3091863E-3,-4.18276E-1,-1.6517714E-1,2.6100283E-2,3.5015386E-2,7.4374E-3,3.7553707E-1,-1.1514149E-1,-3.2903153E-1,-5.1146463E-2,9.1493465E-2,2.70641E-2,2.9302916E-1,6.8086743E-1,4.6423846E-1,-2.7964177E-2,2.416494E-1,-1.5081087E-1,8.32258E-2,-3.0388182E-1,-1.8215536E-1,8.904188E-3,-2.023089E-1,-3.9335644E-1,-2.6645718E-2,-8.551655E-2,-2.9385704E-1,2.5736302E-2,1.0578503E-2,1.7106852E-3,-6.79174E-3,-2.1981692E-2,-1.2069002E-2,2.5559307E-4,-6.494034E-3,8.113488E-3,1.5863102E-3,8.320614E-3,1.6883073E-2,2.6124094E-2,3.7300795E-2,1.0393295E-2,2.4635902E-2,2.5176445E-3,-5.0343266E-3,3.3789467E-2,9.207317E-3,-2.8891703E-3,-1.1134878E-2,2.004656E-2,-1.898269E-3,-1.1486512E-2,-2.1791289E-2,5.4533985E-3,-1.2630718E-2,-1.443278E-2,-5.465473E-3,-2.1877242E-2,-3.2892178E-6,-6.2843836E-3,4.392182E-3,-2.0594928E-2,-1.0908938E-2],"categories":[],"categories_nodes":[],"categories_segments":[],"categories_sizes":[],"default_left":[0,0,0,0,0,0,0,0,0,0,0,0,0,0,0,0,0,0,0,0,0,0,0,0,0,0,0,0,0,0,0,0,0,0,0,0,0,0,0,0,0,0,0,0,0,0,0,0,0,0,0,0,0,0,0,0,0,0,0,0,0,0,0,0,0,0,0,0,0,0,0,0,0,0,0,0,0,0,0,0,0,0,0,0,0],"id":1,"left_children":[1,3,5,7,9,11,-1,13,15,17,19,21,23,25,27,29,31,33,35,37,39,41,43,45,47,-1,-1,-1,49,51,53,55,57,-1,59,61,63,65,67,69,71,73,75,-1,77,79,-1,81,83,-1,-1,-1,-1,-1,-1,-1,-1,-1,-1,-1,-1,-1,-1,-1,-1,-1,-1,-1,-1,-1,-1,-1,-1,-1,-1,-1,-1,-1,-1,-1,-1,-1,-1,-1,-1],"loss_changes":[8.84404E1,1.8454613E2,8.399895E0,6.710034E1,2.8254059E1,3.280796E0,0E0,6.3321114E0,2.7587284E1,1.2160934E1,2.0926652E0,2.1850805E0,5.05291E0,4.994583E-2,7.9059505E-1,1.3776558E1,4.469588E0,9.111347E-1,6.839325E0,2.0289283E0,1.2596895E0,4.2580652E-1,2.4432428E0,3.7812424E-1,1.3297546E0,0E0,0E0,0E0,6.993351E-1,1.7388401E0,6.2473907E0,3.5785334E0,1.271302E0,0E0,1.3827229E0,2.582367E0,2.26651E0,2.0961449E-1,3.256147E0,2.1895874E-1,2.6462703E0,4.0495968E-1,1.7930226E0,0E0,2.3280704E-1,3.0034409E0,0E0,5.8938676E-1,3.5793066E-1,0E0,0E0,0E0,0E0,0E0,0E0,0E0,0E0,0E0,0E0,0E0,0E0,0E0,0E0,0E0,0E0,0E0,0E0,0E0,0E0,0E0,0E0,0E0,0E0,0E0,0E0,0E0,0E0,0E0,0E0,0E0,0E0,0E0,0E0,0E0,0E0],"parents":[2147483647,0,0,1,1,2,2,3,3,4,4,5,5,7,7,8,8,9,9,10,10,11,11,12,12,13,13,14,14,15,15,16,16,17,17,18,18,19,19,20,20,21,21,22,22,23,23,24,24,28,28,29,29,30,30,31,31,32,32,34,34,35,35,36,36,37,37,38,38,39,39,40,40,41,41,42,42,44,44,45,45,47,47,48,48],"right_children":[2,4,6,8,10,12,-1,14,16,18,20,22,24,26,28,30,32,34,36,38,40,42,44,46,48,-1,-1,-1,50,52,54,56,58,-1,60,62,64,66,68,70,72,74,76,-1,78,80,-1,82,84,-1,-1,-1,-1,-1,-1,-1,-1,-1,-1,-1,-1,-1,-1,-1,-1,-1,-1,-1,-1,-1,-1,-1,-1,-1,-1,-1,-1,-1,-1,-1,-1,-1,-1,-1,-1],"split_conditions":[8.270702E1,6.4304596E1,8.8622086E1,1.8958986E1,7.9119316E1,8.521445E1,-2.6318574E-2,1.4590286E1,4.663551E1,6.889608E1,8.141104E1,8.4407486E1,8.726934E1,6.3677673E0,1.7100464E1,3.5162186E1,5.9912205E1,6.457223E1,7.380596E1,7.9580696E1,8.182376E1,8.337796E1,8.4794495E1,8.6961296E1,8.81202E1,2.6100283E-2,3.5015386E-2,7.4374E-3,1.798477E1,2.195288E1,4.047612E1,5.48605E1,6.1681686E1,2.70641E-2,6.561361E1,7.034537E1,7.435653E1,7.934342E1,7.982323E1,8.160274E1,8.205613E1,8.3171265E1,8.359922E1,8.904188E-3,8.500642E1,8.678781E1,-2.6645718E-2,8.793193E1,8.828675E1,2.5736302E-2,1.0578503E-2,1.7106852E-3,-6.79174E-3,-2.1981692E-2,-1.2069002E-2,2.5559307E-4,-6.494034E-3,8.113488E-3,1.5863102E-3,8.320614E-3,1.6883073E-2,2.6124094E-2,3.7300795E-2,1.0393295E-2,2.4635902E-2,2.5176445E-3,-5.0343266E-3,3.3789467E-2,9.207317E-3,-2.8891703E-3,-1.1134878E-2,2.004656E-2,-1.898269E-3,-1.1486512E-2,-2.1791289E-2,5.4533985E-3,-1.2630718E-2,-1.443278E-2,-5.465473E-3,-2.1877242E-2,-3.2892178E-6,-6.2843836E-3,4.392182E-3,-2.0594928E-2,-1.0908938E-2],"split_indices":[1,1,1,1,1,1,0,1,1,1,1,1,1,1,1,1,1,1,1,1,1,1,1,1,1,0,0,0,1,1,1,1,1,0,1,1,1,1,1,1,1,1,1,0,1,1,0,1,1,0,0,0,0,0,0,0,0,0,0,0,0,0,0,0,0,0,0,0,0,0,0,0,0,0,0,0,0,0,0,0,0,0,0,0,0],"split_type":[0,0,0,0,0,0,0,0,0,0,0,0,0,0,0,0,0,0,0,0,0,0,0,0,0,0,0,0,0,0,0,0,0,0,0,0,0,0,0,0,0,0,0,0,0,0,0,0,0,0,0,0,0,0,0,0,0,0,0,0,0,0,0,0,0,0,0,0,0,0,0,0,0,0,0,0,0,0,0,0,0,0,0,0,0],"sum_hessian":[4.3327456E3,3.6429568E3,6.89789E2,2.4920596E3,1.1508971E3,5.371669E2,1.5262212E2,1.700766E2,2.3219832E3,8.80567E2,2.7033005E2,2.0125029E2,3.3591656E2,1.04739586E2,6.533702E1,1.2144845E3,1.1074985E3,2.700795E2,6.1048755E2,1.6933055E2,1.0099949E2,1.3566356E2,6.558674E1,2.0474197E2,1.3117459E2,1.8204582E1,8.6535E1,3.0922873E1,3.441415E1,5.6010913E2,6.5437537E2,8.067449E2,3.0075372E2,1.6458933E1,2.5362056E2,2.8703836E2,3.2344916E2,3.4913998E1,1.3441655E2,3.366605E1,6.7333435E1,5.062408E1,8.503948E1,3.3666027E1,3.1920708E1,1.7182312E2,3.2918846E1,8.204709E1,4.9127506E1,1.7456448E1,1.6957703E1,6.808051E1,4.920286E2,2.8753546E2,3.668399E2,4.7107822E2,3.3566663E2,1.3691005E2,1.6384367E2,6.733298E1,1.8628758E2,8.628549E1,2.0075287E2,3.316818E1,2.9028098E2,1.695847E1,1.7955526E1,1.4463909E1,1.1995264E2,1.5461442E1,1.8204607E1,1.7955208E1,4.937823E1,3.416481E1,1.6459269E1,1.6459713E1,6.8579765E1,1.5461449E1,1.6459259E1,1.5436667E2,1.7456465E1,6.683503E1,1.521206E1,1.7456478E1,3.1671028E1],"tree_param":{"num_deleted":"0","num_feature":"2","num_nodes":"85","size_leaf_vector":"1"}},{"base_weights":[6.064604E-3,5.6945067E-2,-3.6105114E-1,-9.241697E-2,3.2590038E-1,-2.969921E-1,-5.1471114E-1,5.162019E-1,-1.3224868E-1,4.318454E-1,-9.293365E-2,-3.517022E-1,-1.9562405E-1,-5.7378674E-1,-4.314553E-1,6.228983E-1,3.8157734E-1,-2.2388035E-1,-4.08116E-2,2.2386512E-1,4.8070812E-1,-1.3824253E-1,1.1076716E-1,-2.0406172E-1,-3.906517E-1,-1.2544134E-1,-3.0997792E-1,-2.5264261E-2,-3.995585E-2,-1.4500724E-2,-5.6331533E-1,1.7428173E-2,3.4452427E-2,3.2175174E-1,2.1484692E-2,-9.13168E-2,-3.5544807E-1,-7.0536435E-2,5.79497E-2,1.5972671E-1,2.5477797E-1,5.7797146E-1,3.23933E-1,1.9615823E-2,-2.0709993E-1,3.5648518E-3,1.2543072E-1,-1.4079531E-2,-1.5984534E-1,-4.2783576E-1,-3.176367E-1,-2.3010679E-1,2.8415E-2,-2.549528E-2,-1.9153522E-1,-3.2397926E-2,-2.2600137E-2,2.0535223E-2,1.0530831E-2,1.7725459E-3,-5.922094E-3,-2.259451E-2,-1.2379144E-2,-3.0279593E-3,-2.6364816E-2,6.569845E-3,-1.6671252E-3,1.2189467E-2,-4.20654E-3,1.3689736E-2,5.722715E-3,2.0252433E-2,3.0863984E-2,1.921927E-2,1.0412726E-2,-1.0975658E-2,1.33423805E-2,-9.348731E-3,-1.2201785E-2,7.0940717E-3,5.0192843E-3,-9.428142E-3,-6.310943E-3,-1.915409E-2,-3.3378206E-2,-1.2953966E-2,-2.2880595E-2,-9.131737E-3,-1.5083568E-2,-2.3520486E-3,5.1143277E-3,-6.598018E-3,-1.19127305E-2],"categories":[],"categories_nodes":[],"categories_segments":[],"categories_sizes":[],"default_left":[0,0,0,0,0,0,0,0,0,0,0,0,0,0,0,0,0,0,0,0,0,0,0,0,0,0,0,0,0,0,0,0,0,0,0,0,0,0,0,0,0,0,0,0,0,0,0,0,0,0,0,0,0,0,0,0,0,0,0,0,0,0,0,0,0,0,0,0,0,0,0,0,0,0,0,0,0,0,0,0,0,0,0,0,0,0,0,0,0,0,0,0,0],"id":2,"left_children":[1,3,5,7,9,11,13,15,17,19,21,23,25,27,29,31,33,35,37,39,41,43,45,47,49,51,53,-1,-1,-1,55,-1,-1,57,-1,59,61,63,65,67,69,71,73,75,77,-1,79,-1,81,83,85,87,89,-1,91,-1,-1,-1,-1,-1,-1,-1,-1,-1,-1,-1,-1,-1,-1,-1,-1,-1,-1,-1,-1,-1,-1,-1,-1,-1,-1,-1,-1,-1,-1,-1,-1,-1,-1,-1,-1,-1,-1],"loss_changes":[8.05289E1,1.5213283E2,5.012726E0,5.9102547E1,6.0039185E1,1.9983597E0,5.0515366E-1,1.9138489E0,1.9147423E1,1.0861191E1,2.5423367E0,1.3051815E0,1.0278077E0,9.312172E-1,1.0965042E0,1.24753E0,5.9812546E-2,1.9880997E1,3.3672752E0,3.7013912E-1,1.3126694E1,2.4435E0,2.021265E-2,1.3449979E-1,3.7849998E-1,1.359898E0,1.0832176E0,0E0,0E0,0E0,2.6512146E-2,0E0,0E0,2.5606441E-1,0E0,1.9644365E0,5.8456116E0,3.983171E0,1.7851828E0,1.4568881E0,3.3728886E-1,3.403946E0,2.2735977E0,4.1423206E0,7.059288E-2,0E0,3.4731627E-4,0E0,1.0635436E-2,1.060173E0,4.3727493E-1,1.1519933E-1,1.9943118E-1,0E0,6.0179353E-2,0E0,0E0,0E0,0E0,0E0,0E0,0E0,0E0,0E0,0E0,0E0,0E0,0E0,0E0,0E0,0E0,0E0,0E0,0E0,0E0,0E0,0E0,0E0,0E0,0E0,0E0,0E0,0E0,0E0,0E0,0E0,0E0,0E0,0E0,0E0,0E0,0E0,0E0],"parents":[2147483647,0,0,1,1,2,2,3,3,4,4,5,5,6,6,7,7,8,8,9,9,10,10,11,11,12,12,13,13,14,14,15,15,16,16,17,17,18,18,19,19,20,20,21,21,22,22,23,23,24,24,25,25,26,26,30,30,33,33,35,35,36,36,37,37,38,38,39,39,40,40,41,41,42,42,43,43,44,44,46,46,48,48,49,49,50,50,51,51,52,52,54,54],"right_children":[2,4,6,8,10,12,14,16,18,20,22,24,26,28,30,32,34,36,38,40,42,44,46,48,50,52,54,-1,-1,-1,56,-1,-1,58,-1,60,62,64,66,68,70,72,74,76,78,-1,80,-1,82,84,86,88,90,-1,92,-1,-1,-1,-1,-1,-1,-1,-1,-1,-1,-1,-1,-1,-1,-1,-1,-1,-1,-1,-1,-1,-1,-1,-1,-1,-1,-1,-1,-1,-1,-1,-1,-1,-1,-1,-1,-1,-1],"split_conditions":[8.4794495E1,6.3748924E1,8.8622086E1,1.798477E1,8.141104E1,8.726934E1,8.9390396E1,1.3495712E1,4.5548615E1,6.708248E1,8.421207E1,8.537342E1,8.81202E1,8.923954E1,8.969376E1,6.3677673E0,1.5753296E1,3.5162186E1,5.9912205E1,6.482147E1,7.642317E1,8.2295135E1,8.4407486E1,8.500642E1,8.660584E1,8.773898E1,8.828675E1,-2.5264261E-2,-3.995585E-2,-1.4500724E-2,8.983318E1,1.7428173E-2,3.4452427E-2,1.4590286E1,2.1484692E-2,2.2529764E1,4.0750153E1,5.961828E1,6.193885E1,6.457223E1,6.681835E1,6.889608E1,7.982323E1,8.182376E1,8.359922E1,3.5648518E-3,8.459728E1,-1.4079531E-2,8.521445E1,8.6425476E1,8.7139656E1,8.76026E1,8.793193E1,-2.549528E-2,8.845157E1,-3.2397926E-2,-2.2600137E-2,2.0535223E-2,1.0530831E-2,1.7725459E-3,-5.922094E-3,-2.259451E-2,-1.2379144E-2,-3.0279593E-3,-2.6364816E-2,6.569845E-3,-1.6671252E-3,1.2189467E-2,-4.20654E-3,1.3689736E-2,5.722715E-3,2.0252433E-2,3.0863984E-2,1.921927E-2,1.0412726E-2,-1.0975658E-2,1.33423805E-2,-9.348731E-3,-1.2201785E-2,7.0940717E-3,5.0192843E-3,-9.428142E-3,-6.310943E-3,-1.915409E-2,-3.3378206E-2,-1.2953966E-2,-2.2880595E-2,-9.131737E-3,-1.5083568E-2,-2.3520486E-3,5.1143277E-3,-6.598018E-3,-1.19127305E-2],"split_indices":[1,1,1,1,1,1,1,1,1,1,1,1,1,1,1,1,1,1,1,1,1,1,1,1,1,1,1,0,0,0,1,0,0,1,0,1,1,1,1,1,1,1,1,1,1,0,1,0,1,1,1,1,1,0,1,0,0,0,0,0,0,0,0,0,0,0,0,0,0,0,0,0,0,0,0,0,0,0,0,0,0,0,0,0,0,0,0,0,0,0,0,0,0],"split_type":[0,0,0,0,0,0,0,0,0,0,0,0,0,0,0,0,0,0,0,0,0,0,0,0,0,0,0,0,0,0,0,0,0,0,0,0,0,0,0,0,0,0,0,0,0,0,0,0,0,0,0,0,0,0,0,0,0,0,0,0,0,0,0,0,0,0,0,0,0,0,0,0,0,0,0,0,0,0,0,0,0,0,0,0,0,0,0,0,0,0,0,0,0],"sum_hessian":[4.3090947E3,3.7853137E3,5.2378125E2,2.4341729E3,1.3511409E3,3.7173993E2,1.520413E2,1.4878683E2,2.285386E3,1.078341E3,2.727999E2,2.398299E2,1.3191003E2,8.548917E1,6.655213E1,8.0979675E1,6.780716E1,1.140755E3,1.1446311E3,2.0620921E2,8.721317E2,2.2342513E2,4.937478E1,5.136537E1,1.8846452E2,8.3041626E1,4.8868404E1,6.804544E1,1.7443731E1,3.365317E1,3.2898964E1,1.6950922E1,6.4028755E1,3.3652393E1,3.4154766E1,5.6907086E2,5.7168414E2,8.800442E2,2.645869E2,6.9069595E1,1.3713962E2,5.365618E2,3.3556985E2,6.807518E1,1.5534995E2,1.4962411E1,3.441237E1,1.6705511E1,3.4659863E1,1.21651825E2,6.68127E1,4.9126347E1,3.3915283E1,1.695083E1,3.1917572E1,1.5949634E1,1.694933E1,1.7194416E1,1.6457975E1,1.0025012E2,4.6882074E2,3.0013995E2,2.715442E2,8.623402E2,1.7703983E1,1.4638039E2,1.1820652E2,5.1363747E1,1.7705847E1,1.19934814E2,1.7204805E1,1.0147255E2,4.350893E2,2.1886855E2,1.1670131E2,3.466165E1,3.3413525E1,1.0448246E2,5.086749E1,1.7954193E1,1.6458178E1,1.6209309E1,1.8450552E1,1.0470316E2,1.6948658E1,4.9116238E1,1.769646E1,3.1670128E1,1.7456217E1,1.6957392E1,1.6957891E1,1.5709685E1,1.6207888E1],"tree_param":{"num_deleted":"0","num_feature":"2","num_nodes":"93","size_leaf_vector":"1"}},{"base_weights":[-3.1294664E-3,-1.2052525E-1,1.2320885E-1,5.071575E-1,-1.6480915E-1,3.5152107E-1,-2.4118873E-1,6.033217E-1,2.9983595E-1,-2.3087738E-1,-7.4416764E-2,9.602264E-2,4.3758878E-1,-1.2363057E-1,-3.2129636E-1,2.2886971E-2,6.280009E-1,1.7928097E-1,2.5817862E-2,-1.1615075E-1,-3.263161E-1,1.4323614E-2,-1.3882624E-1,3.52227E-2,2.2031958E-1,5.0238985E-1,3.194704E-1,2.2953572E-3,-1.8259062E-1,-2.7267426E-1,-4.259474E-1,3.4128774E-2,2.6442189E-2,4.7540297E-3,1.2646496E-2,1.0788903E-1,-1.3819152E-1,-4.2566404E-1,-2.1740656E-1,-1.0160137E-1,9.5392786E-2,-1.9624197E-1,-2.2593144E-2,2.2351383E-1,-8.73818E-2,3.4929717E-1,1.4664532E-1,3.406264E-1,5.611105E-1,2.9890367E-1,3.572188E-2,-1.6261981E-1,9.0055496E-2,-2.4547209E-1,-7.59324E-2,-3.6941534E-1,-1.4534147E-1,-4.8092845E-1,-3.544427E-1,7.1544386E-3,1.2984779E-3,-8.816213E-3,-4.9563237E-3,-1.6171096E-2,-2.8812662E-2,-1.39450235E-2,-9.012731E-3,5.882652E-4,-7.8992825E-3,1.500676E-2,3.9501935E-3,-5.888143E-3,-1.2456867E-2,5.7980097E-3,-6.03564E-3,4.149454E-3,1.5571686E-2,-8.573149E-3,-1.8295655E-3,8.867214E-3,2.5600536E-2,1.0718355E-3,9.459184E-3,2.1972876E-2,9.262101E-3,2.9960377E-2,2.4032941E-2,1.9574955E-2,1.15190195E-2,-3.2621927E-3,-1.22181475E-2,6.142666E-3,2.6357214E-3,-1.537948E-2,-1.0248872E-2,5.918501E-3,-9.6375095E-3,-1.6645111E-2,-2.5964586E-2,1.4191837E-3,-1.0050059E-2,-2.0927755E-2,-3.39763E-2,-1.1452731E-2,-2.3662439E-2],"categories":[],"categories_nodes":[],"categories_segments":[],"categories_sizes":[],"default_left":[0,0,0,0,0,0,0,0,0,0,0,0,0,0,0,0,0,0,0,0,0,0,0,0,0,0,0,0,0,0,0,0,0,0,0,0,0,0,0,0,0,0,0,0,0,0,0,0,0,0,0,0,0,0,0,0,0,0,0,0,0,0,0,0,0,0,0,0,0,0,0,0,0,0,0,0,0,0,0,0,0,0,0,0,0,0,0,0,0,0,0,0,0,0,0,0,0,0,0,0,0,0,0,0,0],"id":3,"left_children":[1,3,5,7,9,11,13,15,17,19,21,23,25,27,29,-1,31,33,-1,35,37,39,41,43,45,47,49,51,53,55,57,-1,-1,-1,-1,59,61,63,65,67,69,71,73,75,77,79,81,83,85,87,-1,89,91,93,95,97,99,101,103,-1,-1,-1,-1,-1,-1,-1,-1,-1,-1,-1,-1,-1,-1,-1,-1,-1,-1,-1,-1,-1,-1,-1,-1,-1,-1,-1,-1,-1,-1,-1,-1,-1,-1,-1,-1,-1,-1,-1,-1,-1,-1,-1,-1,-1,-1],"loss_changes":[6.4107155E1,6.235965E1,1.7329054E2,2.7676735E0,1.2485657E1,2.8113129E1,7.5180244E0,7.197952E-2,1.1825676E0,1.320031E1,5.063347E0,2.4400582E0,7.167984E0,2.4272876E0,2.3093224E0,0E0,8.73909E-2,1.8004298E-1,0E0,2.7337399E0,7.0426254E0,3.518163E0,3.420411E0,5.068277E0,9.5796585E-1,5.6650696E0,2.5640259E0,1.5375761E0,1.4745874E0,3.9896297E0,4.1701698E-1,0E0,0E0,0E0,0E0,1.4010543E-1,7.299051E-1,5.107235E0,6.731043E-1,9.8699796E-1,7.151873E-1,1.3960857E0,2.3361723E0,1.0431895E0,5.6244063E-1,9.692416E-1,3.6514008E-1,2.4791756E0,1.0935974E0,1.9828739E0,0E0,2.7780455E-1,7.8422904E-2,2.8814888E-1,1.930014E0,8.44326E-1,1.3919318E0,7.2730255E-1,9.158783E-1,0E0,0E0,0E0,0E0,0E0,0E0,0E0,0E0,0E0,0E0,0E0,0E0,0E0,0E0,0E0,0E0,0E0,0E0,0E0,0E0,0E0,0E0,0E0,0E0,0E0,0E0,0E0,0E0,0E0,0E0,0E0,0E0,0E0,0E0,0E0,0E0,0E0,0E0,0E0,0E0,0E0,0E0,0E0,0E0,0E0,0E0],"parents":[2147483647,0,0,1,1,2,2,3,3,4,4,5,5,6,6,7,7,8,8,9,9,10,10,11,11,12,12,13,13,14,14,16,16,17,17,19,19,20,20,21,21,22,22,23,23,24,24,25,25,26,26,27,27,28,28,29,29,30,30,35,35,36,36,37,37,38,38,39,39,40,40,41,41,42,42,43,43,44,44,45,45,46,46,47,47,48,48,49,49,51,51,52,52,53,53,54,54,55,55,56,56,57,57,58,58],"right_children":[2,4,6,8,10,12,14,16,18,20,22,24,26,28,30,-1,32,34,-1,36,38,40,42,44,46,48,50,52,54,56,58,-1,-1,-1,-1,60,62,64,66,68,70,72,74,76,78,80,82,84,86,88,-1,90,92,94,96,98,100,102,104,-1,-1,-1,-1,-1,-1,-1,-1,-1,-1,-1,-1,-1,-1,-1,-1,-1,-1,-1,-1,-1,-1,-1,-1,-1,-1,-1,-1,-1,-1,-1,-1,-1,-1,-1,-1,-1,-1,-1,-1,-1,-1,-1,-1,-1,-1],"split_conditions":[6.0750366E1,1.798477E1,8.141104E1,1.4590286E1,4.663551E1,6.561361E1,8.537342E1,6.3677673E0,1.7100464E1,3.4836117E1,5.3082268E1,6.403936E1,7.642317E1,8.270702E1,8.8622086E1,2.2886971E-2,1.2157379E1,1.5753296E1,2.5817862E-2,2.0511597E1,4.0984314E1,4.9351475E1,5.836011E1,6.193885E1,6.457223E1,6.856994E1,8.121112E1,8.182376E1,8.4407486E1,8.726934E1,8.9390396E1,3.4128774E-2,2.6442189E-2,4.7540297E-3,1.2646496E-2,1.9661118E1,2.8972275E1,3.8572784E1,4.3132706E1,4.7570934E1,4.9627808E1,5.537357E1,5.9363853E1,6.1181408E1,6.271885E1,6.4304596E1,6.482147E1,6.731352E1,7.380596E1,7.861387E1,3.572188E-2,8.160274E1,8.2295135E1,8.337796E1,8.4794495E1,8.6961296E1,8.76026E1,8.923954E1,8.969376E1,7.1544386E-3,1.2984779E-3,-8.816213E-3,-4.9563237E-3,-1.6171096E-2,-2.8812662E-2,-1.39450235E-2,-9.012731E-3,5.882652E-4,-7.8992825E-3,1.500676E-2,3.9501935E-3,-5.888143E-3,-1.2456867E-2,5.7980097E-3,-6.03564E-3,4.149454E-3,1.5571686E-2,-8.573149E-3,-1.8295655E-3,8.867214E-3,2.5600536E-2,1.0718355E-3,9.459184E-3,2.1972876E-2,9.262101E-3,2.9960377E-2,2.4032941E-2,1.9574955E-2,1.15190195E-2,-3.2621927E-3,-1.22181475E-2,6.142666E-3,2.6357214E-3,-1.537948E-2,-1.0248872E-2,5.918501E-3,-9.6375095E-3,-1.6645111E-2,-2.5964586E-2,1.4191837E-3,-1.0050059E-2,-2.0927755E-2,-3.39763E-2,-1.1452731E-2,-2.3662439E-2],"split_indices":[1,1,1,1,1,1,1,1,1,1,1,1,1,1,1,0,1,1,0,1,1,1,1,1,1,1,1,1,1,1,1,0,0,0,0,1,1,1,1,1,1,1,1,1,1,1,1,1,1,1,0,1,1,1,1,1,1,1,1,0,0,0,0,0,0,0,0,0,0,0,0,0,0,0,0,0,0,0,0,0,0,0,0,0,0,0,0,0,0,0,0,0,0,0,0,0,0,0,0,0,0,0,0,0,0],"split_type":[0,0,0,0,0,0,0,0,0,0,0,0,0,0,0,0,0,0,0,0,0,0,0,0,0,0,0,0,0,0,0,0,0,0,0,0,0,0,0,0,0,0,0,0,0,0,0,0,0,0,0,0,0,0,0,0,0,0,0,0,0,0,0,0,0,0,0,0,0,0,0,0,0,0,0,0,0,0,0,0,0,0,0,0,0,0,0,0,0,0,0,0,0,0,0,0,0,0,0,0,0,0,0,0,0],"sum_hessian":[4.3203384E3,2.239449E3,2.0808894E3,1.4689519E2,2.092554E3,1.2793511E3,8.015383E2,9.9044334E1,4.785086E1,1.2080386E3,8.845154E2,3.2290353E2,9.564476E2,3.2586865E2,4.7566968E2,1.718976E1,8.1854576E1,3.1911274E1,1.5939587E1,5.495921E2,6.584464E2,3.723233E2,5.121921E2,2.1769919E2,1.0520435E2,6.155157E2,3.409319E2,1.04225845E2,2.216428E2,3.2723697E2,1.4843271E2,4.9001247E1,3.285333E1,1.5958011E1,1.5953263E1,4.8876617E1,5.0071545E2,3.428176E2,3.1562885E2,1.531183E2,2.19205E2,3.423787E2,1.6981339E2,8.552707E1,1.3217212E2,3.6887054E1,6.831729E1,1.6573914E2,4.4977655E2,3.2572742E2,1.5204477E1,3.5903843E1,6.8322E1,1.3861778E2,8.3025024E1,1.8487614E2,1.4236084E2,8.067479E1,6.775793E1,3.366465E1,1.521197E1,2.5160324E2,2.4911223E2,2.0606084E2,1.3675676E2,1.1642128E2,1.9920757E2,5.1122448E1,1.0199585E2,1.4962994E1,2.04242E2,1.3915111E2,2.032276E2,7.0325676E1,9.94877E1,3.3664356E1,5.1862717E1,4.8879166E1,8.329295E1,1.8950455E1,1.7936602E1,1.7705715E1,5.061158E1,1.0018744E2,6.55517E1,3.008597E2,1.4891684E2,1.365263E2,1.8920113E2,1.720576E1,1.8698086E1,3.5154594E1,3.3167408E1,5.2100883E1,8.65169E1,3.1168814E1,5.1856213E1,1.5124963E2,3.36265E1,3.466244E1,1.07698395E2,6.3757946E1,1.6916843E1,3.4390312E1,3.3367615E1],"tree_param":{"num_deleted":"0","num_feature":"2","num_nodes":"105","size_leaf_vector":"1"}},{"base_weights":[-3.664262E-3,4.1528888E-2,-3.264847E-1,-1.0555709E-1,2.4271376E-1,-2.7690127E-1,-4.4418657E-1,4.7099245E-1,-1.4894262E-1,3.083296E-1,-2.8304707E-3,-3.6046448E-1,-1.3323484E-1,-4.763665E-1,-3.963671E-1,5.923554E-1,1.5502169E-2,-2.1071209E-1,-6.969618E-2,1.4853205E-1,4.2783538E-1,-4.2949602E-2,1.8923778E-2,-3.1589136E-1,-3.0751903E-2,-2.1643308E-1,-8.2072146E-2,-2.1676047E-2,-3.046391E-2,-6.953541E-3,-2.3852272E-2,1.984397E-2,6.336892E-1,-1.10957764E-1,-3.0652425E-1,-3.940806E-3,-1.8989928E-1,9.260628E-2,2.292351E-1,5.708937E-1,3.2130712E-1,1.1055789E-1,-1.9717923E-1,-3.4945953E-1,2.7350232E-3,-3.284417E-3,-2.5714843E-2,6.1313346E-2,-1.802558E-1,3.3559203E-2,2.479148E-2,-1.321286E-4,-7.3326537E-3,-1.96566E-2,-9.427836E-3,-7.837023E-4,1.6398937E-2,-1.9346189E-2,-7.59836E-3,9.676834E-3,1.7081121E-3,1.2941693E-2,-6.1836326E-3,2.4316018E-2,3.0559778E-2,7.350282E-3,1.7169429E-2,-1.5670968E-3,8.846791E-3,-5.689656E-3,-1.4672251E-2,-9.102658E-3,-1.919545E-2,-3.1461865E-3,8.492152E-3,-2.0854494E-2,-3.1343803E-3],"categories":[],"categories_nodes":[],"categories_segments":[],"categories_sizes":[],"default_left":[0,0,0,0,0,0,0,0,0,0,0,0,0,0,0,0,0,0,0,0,0,0,0,0,0,0,0,0,0,0,0,0,0,0,0,0,0,0,0,0,0,0,0,0,0,0,0,0,0,0,0,0,0,0,0,0,0,0,0,0,0,0,0,0,0,0,0,0,0,0,0,0,0,0,0,0,0],"id":4,"left_children":[1,3,5,7,9,11,13,15,17,19,21,23,25,27,29,31,-1,33,35,37,39,41,-1,43,-1,45,47,-1,-1,-1,-1,-1,49,51,53,55,57,59,61,63,65,67,69,71,-1,-1,-1,73,75,-1,-1,-1,-1,-1,-1,-1,-1,-1,-1,-1,-1,-1,-1,-1,-1,-1,-1,-1,-1,-1,-1,-1,-1,-1,-1,-1,-1],"loss_changes":[6.2692734E1,1.1157202E2,2.9567223E0,5.45565E1,2.5655418E1,4.441309E0,4.9324036E-2,2.7987251E0,9.905342E0,2.3932175E1,5.1680155E0,2.481863E0,5.7435775E-1,2.3443794E-1,1.3494911E0,4.4293976E-1,0E0,1.0846149E1,7.0274262E0,2.4122362E0,1.0764343E1,7.2571435E0,0E0,2.5414448E0,0E0,2.3171794E0,1.2463596E0,0E0,0E0,0E0,0E0,0E0,2.5266647E-2,2.161973E0,5.8525925E0,2.247561E0,2.2908792E0,1.8818793E0,2.3302307E0,7.4344635E-1,1.5430984E0,1.4542116E0,1.1931982E0,1.0030899E0,0E0,0E0,0E0,5.0161886E-1,1.4311229E0,0E0,0E0,0E0,0E0,0E0,0E0,0E0,0E0,0E0,0E0,0E0,0E0,0E0,0E0,0E0,0E0,0E0,0E0,0E0,0E0,0E0,0E0,0E0,0E0,0E0,0E0,0E0,0E0],"parents":[2147483647,0,0,1,1,2,2,3,3,4,4,5,5,6,6,7,7,8,8,9,9,10,10,11,11,12,12,13,13,14,14,15,15,17,17,18,18,19,19,20,20,21,21,23,23,25,25,26,26,32,32,33,33,34,34,35,35,36,36,37,37,38,38,39,39,40,40,41,41,42,42,43,43,47,47,48,48],"right_children":[2,4,6,8,10,12,14,16,18,20,22,24,26,28,30,32,-1,34,36,38,40,42,-1,44,-1,46,48,-1,-1,-1,-1,-1,50,52,54,56,58,60,62,64,66,68,70,72,-1,-1,-1,74,76,-1,-1,-1,-1,-1,-1,-1,-1,-1,-1,-1,-1,-1,-1,-1,-1,-1,-1,-1,-1,-1,-1,-1,-1,-1,-1,-1,-1],"split_conditions":[8.4794495E1,6.0112328E1,8.8622086E1,1.798477E1,8.053641E1,8.726934E1,8.9390396E1,1.3495712E1,4.5548615E1,6.856994E1,8.4407486E1,8.6961296E1,8.773898E1,8.923954E1,8.953215E1,6.3677673E0,1.5502169E-2,3.4836117E1,5.537357E1,6.482147E1,7.380596E1,8.2519356E1,1.8923778E-2,8.678781E1,-3.0751903E-2,8.76026E1,8.81202E1,-2.1676047E-2,-3.046391E-2,-6.953541E-3,-2.3852272E-2,1.984397E-2,1.2157379E1,2.3815048E1,4.0984314E1,5.51118E1,5.6064217E1,6.1681686E1,6.829879E1,7.034537E1,7.4646225E1,8.121112E1,8.359922E1,8.521445E1,2.7350232E-3,-3.284417E-3,-2.5714843E-2,8.793193E1,8.828675E1,3.3559203E-2,2.479148E-2,-1.321286E-4,-7.3326537E-3,-1.96566E-2,-9.427836E-3,-7.837023E-4,1.6398937E-2,-1.9346189E-2,-7.59836E-3,9.676834E-3,1.7081121E-3,1.2941693E-2,-6.1836326E-3,2.4316018E-2,3.0559778E-2,7.350282E-3,1.7169429E-2,-1.5670968E-3,8.846791E-3,-5.689656E-3,-1.4672251E-2,-9.102658E-3,-1.919545E-2,-3.1461865E-3,8.492152E-3,-2.0854494E-2,-3.1343803E-3],"split_indices":[1,1,1,1,1,1,1,1,1,1,1,1,1,1,1,1,0,1,1,1,1,1,0,1,0,1,1,0,0,0,0,0,1,1,1,1,1,1,1,1,1,1,1,1,0,0,0,1,1,0,0,0,0,0,0,0,0,0,0,0,0,0,0,0,0,0,0,0,0,0,0,0,0,0,0,0,0],"split_type":[0,0,0,0,0,0,0,0,0,0,0,0,0,0,0,0,0,0,0,0,0,0,0,0,0,0,0,0,0,0,0,0,0,0,0,0,0,0,0,0,0,0,0,0,0,0,0,0,0,0,0,0,0,0,0,0,0,0,0,0,0,0,0,0,0,0,0,0,0,0,0,0,0,0,0,0,0],"sum_hessian":[4.2952505E3,3.7685457E3,5.26705E2,2.1772422E3,1.5913033E3,3.7294827E2,1.5375677E2,1.5168233E2,2.0255598E3,1.2555356E3,3.357677E2,2.3484323E2,1.3810503E2,8.6550934E1,6.720585E1,8.49476E1,6.673473E1,1.1373677E3,8.881922E2,5.381668E2,7.1736884E2,3.0460593E2,3.1161768E1,2.0175835E2,3.3084877E1,5.1358353E1,8.674668E1,6.867463E1,1.7876303E1,1.6692982E1,5.0512863E1,1.6677631E1,6.8269966E1,5.582777E2,5.790899E2,5.7479285E2,3.1339935E2,3.1914948E2,2.1901735E2,3.04326E2,4.1304282E2,1.5280228E2,1.5180367E2,1.8505327E2,1.6705082E1,3.491094E1,1.6447414E1,3.5410053E1,5.1336628E1,5.0630867E1,1.76391E1,1.386443E2,4.1963342E2,3.3258487E2,2.4650505E2,5.5608813E2,1.8704742E1,4.9110783E1,2.6428857E2,1.16187355E2,2.0296213E2,2.0231549E2,1.6701859E1,1.0243441E2,2.0189159E2,4.7303818E1,3.65739E2,4.8866165E1,1.0393611E2,8.2512665E1,6.9291E1,3.2654427E1,1.5239883E2,1.67062E1,1.8703854E1,1.6185091E1,3.515154E1],"tree_param":{"num_deleted":"0","num_feature":"2","num_nodes":"77","size_leaf_vector":"1"}},{"base_weights":[-5.6902263E-3,-1.8911041E0,1.8895034E0,-9.46945E-2,-6.900885E-2,5.5924635E-2,9.472715E-2],"categories":[],"categories_nodes":[],"categories_segments":[],"categories_sizes":[],"default_left":[0,0,0,0,0,0,0],"id":5,"left_children":[1,3,5,-1,-1,-1,-1],"loss_changes":[1.5493225E4,4.7998047E-1,6.283203E0,0E0,0E0,0E0,0E0],"parents":[2147483647,0,0,1,1,2,2],"right_children":[2,4,6,-1,-1,-1,-1],"split_conditions":[1.5185005E1,1.2402389E1,2.4857107E1,-9.46945E-2,-6.900885E-2,5.5924635E-2,9.472715E-2],"split_indices":[0,0,0,0,0,0,0],"split_type":[0,0,0,0,0,0,0],"sum_hessian":[4.333923E3,2.172568E3,2.1613547E3,2.1580938E3,1.4474317E1,1.5483102E1,2.1458716E3],"tree_param":{"num_deleted":"0","num_feature":"2","num_nodes":"7","size_leaf_vector":"1"}},{"base_weights":[-9.568751E-5,-9.046284E-2,1.8070018E0,4.8671402E-2,9.066592E-2],"categories":[],"categories_nodes":[],"categories_segments":[],"categories_sizes":[],"default_left":[0,0,0,0,0],"id":6,"left_children":[1,-1,3,-1,-1],"loss_changes":[1.392765E4,0E0,9.457031E0,0E0,0E0],"parents":[2147483647,0,0,2,2],"right_children":[2,-1,4,-1,-1],"split_conditions":[1.5185005E1,-9.046284E-2,2.4857107E1,4.8671402E-2,9.066592E-2],"split_indices":[0,0,0,0,0],"split_type":[0,0,0,0,0],"sum_hessian":[4.258093E3,2.1278308E3,2.130262E3,1.718747E1,2.1130745E3],"tree_param":{"num_deleted":"0","num_feature":"2","num_nodes":"5","size_leaf_vector":"1"}},{"base_weights":[-5.869206E-3,3.2188743E-2,-3.0344155E-1,-9.4423264E-2,2.3962985E-1,-2.6637498E-1,-3.840801E-1,3.65275E-1,-1.2597324E-1,3.4353486E-1,1.2407908E-2,-3.302355E-1,-1.654936E-1,-4.762762E-1,-2.6845968E-1,2.158421E-2,1.3821537E-2,-2.0476699E-1,-3.689694E-2,2.0964096E-1,4.1556907E-1,1.1540001E-1,-8.4278844E-2,-9.527491E-3,-3.4171894E-1,-1.0739125E-1,-2.612123E-1,-1.844705E-2,-2.492254E-2,-8.363037E-3,-1.4857977E-2,-1.2839414E-1,-3.06245E-1,-3.2095544E-2,-1.5646027E-2,9.223862E-2,2.5729063E-1,4.89204E-1,3.540986E-1,-3.2692873E-3,1.3099104E-1,-1.4052548E-1,2.274917E-2,-2.157115E-2,-3.0638358E-1,-1.5865622E-1,4.5673735E-3,-1.8331885E-2,-9.764041E-3,2.2473098E-3,-6.9073737E-3,-2.1851072E-2,-1.1383641E-2,-2.8395206E-3,1.5284629E-3,6.7230174E-3,2.3995985E-3,2.494854E-2,1.1844369E-2,2.0639924E-2,2.642054E-2,1.8684795E-2,1.1273219E-2,2.0120628E-2,5.332312E-3,-4.7740093E-3,-1.13648055E-2,4.0675523E-3,-3.3586833E-3,-1.0506093E-2,-1.6883314E-2,-4.7311634E-3,-1.1063293E-2],"categories":[],"categories_nodes":[],"categories_segments":[],"categories_sizes":[],"default_left":[0,0,0,0,0,0,0,0,0,0,0,0,0,0,0,0,0,0,0,0,0,0,0,0,0,0,0,0,0,0,0,0,0,0,0,0,0,0,0,0,0,0,0,0,0,0,0,0,0,0,0,0,0,0,0,0,0,0,0,0,0,0,0,0,0,0,0,0,0,0,0,0,0],"id":7,"left_children":[1,3,5,7,9,11,13,15,17,19,21,23,25,27,29,-1,-1,31,33,35,37,39,41,-1,43,45,47,-1,-1,-1,-1,49,51,53,-1,55,57,59,61,-1,63,65,67,-1,69,71,-1,-1,-1,-1,-1,-1,-1,-1,-1,-1,-1,-1,-1,-1,-1,-1,-1,-1,-1,-1,-1,-1,-1,-1,-1,-1,-1],"loss_changes":[4.792716E1,9.857362E1,1.3320312E0,3.385064E1,3.3579063E1,2.0843258E0,1.4588833E0,7.653847E-1,1.5306076E1,9.326904E0,4.4648323E0,2.5940704E-1,6.988802E-1,1.0137558E-2,1.4875317E-1,0E0,0E0,8.931694E0,1.3488121E0,1.8975677E0,2.694748E0,6.2036085E-1,1.3958391E0,0E0,4.5638084E-1,8.604756E-1,2.6672792E-1,0E0,0E0,0E0,0E0,1.1257248E0,5.0006294E0,1.5630151E0,0E0,1.8169034E-1,1.0836773E0,6.376114E-1,7.9541016E-1,0E0,1.2796433E0,5.715573E-1,4.299569E-1,0E0,3.4057426E-1,2.4515796E-1,0E0,0E0,0E0,0E0,0E0,0E0,0E0,0E0,0E0,0E0,0E0,0E0,0E0,0E0,0E0,0E0,0E0,0E0,0E0,0E0,0E0,0E0,0E0,0E0,0E0,0E0,0E0],"parents":[2147483647,0,0,1,1,2,2,3,3,4,4,5,5,6,6,7,7,8,8,9,9,10,10,11,11,12,12,13,13,14,14,17,17,18,18,19,19,20,20,21,21,22,22,24,24,25,25,26,26,31,31,32,32,33,33,35,35,36,36,37,37,38,38,40,40,41,41,42,42,44,44,45,45],"right_children":[2,4,6,8,10,12,14,16,18,20,22,24,26,28,30,-1,-1,32,34,36,38,40,42,-1,44,46,48,-1,-1,-1,-1,50,52,54,-1,56,58,60,62,-1,64,66,68,-1,70,72,-1,-1,-1,-1,-1,-1,-1,-1,-1,-1,-1,-1,-1,-1,-1,-1,-1,-1,-1,-1,-1,-1,-1,-1,-1,-1,-1],"split_conditions":[8.521445E1,6.271885E1,8.8622086E1,1.798477E1,7.934342E1,8.726934E1,8.9390396E1,1.3495712E1,4.6161835E1,6.856994E1,8.2295135E1,8.537342E1,8.81202E1,8.877784E1,8.953215E1,2.158421E-2,1.3821537E-2,3.7117725E1,6.2443726E1,6.4304596E1,7.353236E1,7.9580696E1,8.421207E1,-9.527491E-3,8.5922104E1,8.793193E1,8.828675E1,-1.844705E-2,-2.492254E-2,-8.363037E-3,-1.4857977E-2,1.9661118E1,4.047612E1,5.836011E1,-1.5646027E-2,6.3461224E1,6.457223E1,7.034537E1,7.861387E1,-3.2692873E-3,7.982323E1,8.359922E1,8.4794495E1,-2.157115E-2,8.6240326E1,8.76026E1,4.5673735E-3,-1.8331885E-2,-9.764041E-3,2.2473098E-3,-6.9073737E-3,-2.1851072E-2,-1.1383641E-2,-2.8395206E-3,1.5284629E-3,6.7230174E-3,2.3995985E-3,2.494854E-2,1.1844369E-2,2.0639924E-2,2.642054E-2,1.8684795E-2,1.1273219E-2,2.0120628E-2,5.332312E-3,-4.7740093E-3,-1.13648055E-2,4.0675523E-3,-3.3586833E-3,-1.0506093E-2,-1.6883314E-2,-4.7311634E-3,-1.1063293E-2],"split_indices":[1,1,1,1,1,1,1,1,1,1,1,1,1,1,1,0,0,1,1,1,1,1,1,0,1,1,1,0,0,0,0,1,1,1,0,1,1,1,1,0,1,1,1,0,1,1,0,0,0,0,0,0,0,0,0,0,0,0,0,0,0,0,0,0,0,0,0,0,0,0,0,0,0],"split_type":[0,0,0,0,0,0,0,0,0,0,0,0,0,0,0,0,0,0,0,0,0,0,0,0,0,0,0,0,0,0,0,0,0,0,0,0,0,0,0,0,0,0,0,0,0,0,0,0,0,0,0,0,0,0,0,0,0,0,0,0,0,0,0,0,0,0,0,0,0,0,0,0,0],"sum_hessian":[4.2301187E3,3.7512458E3,4.7887292E2,2.3297961E3,1.4214498E3,3.3101898E2,1.4785393E2,1.4894969E2,2.1808464E3,9.750589E2,4.46391E2,2.0131065E2,1.2970834E2,8.052431E1,6.732963E1,8.3028656E1,6.5921036E1,1.1565256E3,1.0243207E3,3.4244598E2,6.326129E2,2.1605383E2,2.3033716E2,1.6628874E1,1.8468178E2,8.203445E1,4.7673897E1,1.6807308E1,6.3716995E1,1.6384384E1,5.0945244E1,6.61182E2,4.9534363E2,1.00790466E3,1.6416094E1,9.9709946E1,2.4273604E2,2.846613E2,3.4795163E2,1.6899696E1,1.9915413E2,1.5078293E2,7.955422E1,4.902221E1,1.3565956E2,6.537305E1,1.66614E1,1.658821E1,3.108569E1,3.5028717E1,6.261533E2,1.8419893E2,3.111447E2,7.2305695E2,2.8484766E2,4.997916E1,4.9730785E1,1.7071066E1,2.2566498E2,1.0044489E2,1.8421638E2,3.0029657E2,4.7655052E1,1.5114299E1,1.8403984E2,1.0063869E2,5.014425E1,4.822304E1,3.133118E1,3.5165775E1,1.0049379E2,3.3560703E1,3.181234E1],"tree_param":{"num_deleted":"0","num_feature":"2","num_nodes":"73","size_leaf_vector":"1"}},{"base_weights":[2.5496255E-3,-8.696069E-2,1.7371354E0,5.1768977E-2,8.7114416E-2],"categories":[],"categories_nodes":[],"categories_segments":[],"categories_sizes":[],"default_left":[0,0,0,0,0],"id":8,"left_children":[1,-1,3,-1,-1],"loss_changes":[1.2760243E4,0E0,5.848633E0,0E0,0E0],"parents":[2147483647,0,0,2,2],"right_children":[2,-1,4,-1,-1],"split_conditions":[1.5185005E1,-8.696069E-2,2.4857107E1,5.1768977E-2,8.7114416E-2],"split_indices":[0,0,0,0,0],"split_type":[0,0,0,0,0],"sum_hessian":[4.221515E3,2.1063982E3,2.115117E3,1.6889557E1,2.0982273E3],"tree_param":{"num_deleted":"0","num_feature":"2","num_nodes":"5","size_leaf_vector":"1"}},{"base_weights":[-4.5799243E-4,4.1576114E-2,-1.8887407E-1,-7.066795E-2,3.0015838E-1,-9.4711386E-2,-2.49847E-1,4.1187355E-1,-1.02158934E-1,3.3109173E-1,1.3955858E-1,-4.0156263E-1,-5.6974307E-2,-2.3494205E-1,-2.1201625E-2,4.9463332E-1,3.051346E-1,-1.7294246E-1,-2.6943604E-2,1.9895463E-1,3.8790834E-1,9.420191E-2,2.4227664E-2,-2.4668433E-2,-1.45093845E-2,2.028166E-1,-9.1384426E-2,-3.1944087E-1,-2.025271E-1,1.7718812E-2,2.6371581E-2,2.5188726E-1,2.191718E-2,-9.069927E-2,-2.3655288E-1,3.5270587E-2,-6.255394E-2,2.2567508E-1,-9.370585E-3,4.563427E-1,3.2198942E-1,-1.7794343E-2,1.2614703E-1,5.141883E-3,1.4312907E-2,-1.7155004E-1,-3.4788025E-3,-2.8045058E-1,-2.026007E-2,-5.49609E-2,-2.2004876E-1,1.4901347E-2,7.358917E-3,-7.107533E-3,-8.262208E-4,-1.4475967E-2,-6.550117E-3,1.1159846E-3,9.191376E-3,-7.2649927E-3,5.094597E-4,8.793095E-3,1.4025015E-2,1.9671882E-2,2.5896406E-2,9.1975285E-3,1.685441E-2,4.059399E-3,-5.206389E-3,1.8565377E-2,4.2309663E-3,-7.358797E-3,-1.652583E-2,1.8357137E-3,-2.9293979E-3,-1.5851595E-2,-6.3132974E-3,-1.0543468E-2,5.610023E-3,-1.6579363E-2,-1.0134469E-2],"categories":[],"categories_nodes":[],"categories_segments":[],"categories_sizes":[],"default_left":[0,0,0,0,0,0,0,0,0,0,0,0,0,0,0,0,0,0,0,0,0,0,0,0,0,0,0,0,0,0,0,0,0,0,0,0,0,0,0,0,0,0,0,0,0,0,0,0,0,0,0,0,0,0,0,0,0,0,0,0,0,0,0,0,0,0,0,0,0,0,0,0,0,0,0,0,0,0,0,0,0],"id":9,"left_children":[1,3,5,7,9,11,13,15,17,19,21,23,25,27,-1,29,31,33,35,37,39,41,-1,-1,-1,43,45,47,49,-1,-1,51,-1,53,55,57,59,61,-1,63,65,67,69,-1,-1,71,73,75,-1,77,79,-1,-1,-1,-1,-1,-1,-1,-1,-1,-1,-1,-1,-1,-1,-1,-1,-1,-1,-1,-1,-1,-1,-1,-1,-1,-1,-1,-1,-1,-1],"loss_changes":[3.2902157E1,9.860574E1,4.326893E0,3.6045517E1,5.062271E0,3.444434E0,1.0928898E0,1.1330433E0,1.1841084E1,6.390579E0,2.5801065E0,1.9043207E-1,2.412557E0,1.10038E0,0E0,1.8230438E-1,3.5835552E-1,5.9742317E0,2.3946881E0,2.7378302E0,2.5660553E0,5.372828E-1,0E0,0E0,0E0,2.3446E-1,1.6707505E0,2.749176E-1,7.8985405E-1,0E0,0E0,1.9560313E-1,0E0,1.9113889E0,3.5714874E0,7.534449E-1,4.137582E0,6.188469E-1,0E0,9.300499E-1,5.835304E-1,2.9955998E-1,1.1544693E0,0E0,0E0,4.3191552E-1,2.5498337E-1,4.288516E-1,0E0,9.1632617E-1,4.6895027E-1,0E0,0E0,0E0,0E0,0E0,0E0,0E0,0E0,0E0,0E0,0E0,0E0,0E0,0E0,0E0,0E0,0E0,0E0,0E0,0E0,0E0,0E0,0E0,0E0,0E0,0E0,0E0,0E0,0E0,0E0],"parents":[2147483647,0,0,1,1,2,2,3,3,4,4,5,5,6,6,7,7,8,8,9,9,10,10,11,11,12,12,13,13,15,15,16,16,17,17,18,18,19,19,20,20,21,21,25,25,26,26,27,27,28,28,31,31,33,33,34,34,35,35,36,36,37,37,39,39,40,40,41,41,42,42,45,45,46,46,47,47,49,49,50,50],"right_children":[2,4,6,8,10,12,14,16,18,20,22,24,26,28,-1,30,32,34,36,38,40,42,-1,-1,-1,44,46,48,50,-1,-1,52,-1,54,56,58,60,62,-1,64,66,68,70,-1,-1,72,74,76,-1,78,80,-1,-1,-1,-1,-1,-1,-1,-1,-1,-1,-1,-1,-1,-1,-1,-1,-1,-1,-1,-1,-1,-1,-1,-1,-1,-1,-1,-1,-1,-1],"split_conditions":[8.141104E1,6.403936E1,8.537342E1,1.798477E1,7.9119316E1,8.182376E1,8.969376E1,1.3495712E1,4.6161835E1,6.856994E1,8.121112E1,8.160274E1,8.2295135E1,8.660584E1,-2.1201625E-2,6.3677673E0,1.7100464E1,3.415733E1,5.3082268E1,6.829879E1,7.380596E1,7.9580696E1,2.4227664E-2,-2.4668433E-2,-1.45093845E-2,8.205613E1,8.4036446E1,8.6240326E1,8.6961296E1,1.7718812E-2,2.6371581E-2,1.5753296E1,2.191718E-2,2.8972275E1,4.214229E1,5.248184E1,5.836011E1,6.618652E1,-9.370585E-3,7.119612E1,7.435653E1,7.934342E1,7.982323E1,5.141883E-3,1.4312907E-2,8.381744E1,8.4794495E1,8.609698E1,-2.026007E-2,8.678781E1,8.726934E1,1.4901347E-2,7.358917E-3,-7.107533E-3,-8.262208E-4,-1.4475967E-2,-6.550117E-3,1.1159846E-3,9.191376E-3,-7.2649927E-3,5.094597E-4,8.793095E-3,1.4025015E-2,1.9671882E-2,2.5896406E-2,9.1975285E-3,1.685441E-2,4.059399E-3,-5.206389E-3,1.8565377E-2,4.2309663E-3,-7.358797E-3,-1.652583E-2,1.8357137E-3,-2.9293979E-3,-1.5851595E-2,-6.3132974E-3,-1.0543468E-2,5.610023E-3,-1.6579363E-2,-1.0134469E-2],"split_indices":[1,1,1,1,1,1,1,1,1,1,1,1,1,1,0,1,1,1,1,1,1,1,0,0,0,1,1,1,1,0,0,1,0,1,1,1,1,1,0,1,1,1,1,0,0,1,1,1,0,1,1,0,0,0,0,0,0,0,0,0,0,0,0,0,0,0,0,0,0,0,0,0,0,0,0,0,0,0,0,0,0],"split_type":[0,0,0,0,0,0,0,0,0,0,0,0,0,0,0,0,0,0,0,0,0,0,0,0,0,0,0,0,0,0,0,0,0,0,0,0,0,0,0,0,0,0,0,0,0,0,0,0,0,0,0,0,0,0,0,0,0,0,0,0,0,0,0,0,0,0,0,0,0,0,0,0,0,0,0,0,0,0,0,0,0],"sum_hessian":[4.152373E3,3.3956174E3,7.567555E2,2.3683171E3,1.0273003E3,2.9843103E2,4.5832446E2,1.4434933E2,2.2239678E3,8.6049713E2,1.6680313E2,3.1626404E1,2.6680463E2,4.2436093E2,3.396351E1,7.926072E1,6.5088615E1,1.1450688E3,1.0788989E3,2.6009714E2,6.004E2,1.4854666E2,1.8256475E1,1.5456148E1,1.6170256E1,3.0633385E1,2.3617125E2,1.1520121E2,3.0915973E2,1.7259153E1,6.2001564E1,4.8566254E1,1.6522356E1,5.004513E2,6.446176E2,3.9274704E2,6.8615186E2,2.4366179E2,1.6435337E1,2.9167358E2,3.0872644E2,3.3065487E1,1.1548117E2,1.4951307E1,1.5682078E1,1.2302604E2,1.1314521E2,8.213113E1,3.3070084E1,3.3251816E1,2.7590793E2,3.242988E1,1.6136375E1,2.9494577E2,2.0550554E2,4.2806616E2,2.1655144E2,3.6231168E2,3.043536E1,3.2053888E2,3.6561298E2,1.2987102E2,1.1379078E2,1.4794594E2,1.4372766E2,3.1739006E1,2.7698743E2,1.5432052E1,1.7633434E1,1.5577506E1,9.990366E1,1.08340225E2,1.468581E1,6.5619995E1,4.752522E1,6.5528E1,1.6603127E1,1.7069717E1,1.61821E1,3.4720192E1,2.4118773E2],"tree_param":{"num_deleted":"0","num_feature":"2","num_nodes":"81","size_leaf_vector":"1"}},{"base_weights":[-5.2979E-4,-1.6749592E0,1.6734289E0,-8.38821E-2,-6.3661136E-2,4.378497E-2,8.397621E-2],"categories":[],"categories_nodes":[],"categories_segments":[],"categories_sizes":[],"default_left":[0,0,0,0,0,0,0],"id":10,"left_children":[1,3,5,-1,-1,-1,-1],"loss_changes":[1.1610546E4,9.6191406E-2,8.6015625E0,0E0,0E0,0E0,0E0],"parents":[2147483647,0,0,1,1,2,2],"right_children":[2,4,6,-1,-1,-1,-1],"split_conditions":[1.5185005E1,1.2402389E1,2.4857107E1,-8.38821E-2,-6.3661136E-2,4.378497E-2,8.397621E-2],"split_indices":[0,0,0,0,0,0,0],"split_type":[0,0,0,0,0,0,0],"sum_hessian":[4.1402954E3,2.0698564E3,2.0704392E3,2.0529707E3,1.6885626E1,1.6796978E1,2.053642E3],"tree_param":{"num_deleted":"0","num_feature":"2","num_nodes":"7","size_leaf_vector":"1"}},{"base_weights":[-1.2747529E-2,2.642734E-2,-1.8596835E-1,-8.979685E-2,2.1868792E-1,-1.566308E-1,-3.03788E-1,2.7110457E-1,-1.2318351E-1,8.723308E-2,2.6045287E-1,-1.7506534E-1,-3.688152E-2,-1.9372277E-2,-2.9077786E-1,3.667597E-1,1.5583342E-1,-1.646209E-1,-6.3741E-2,1.3246824E-1,5.3347982E-2,2.9857904E-1,1.1061683E-1,-1.0454713E-1,-2.3914848E-1,8.982128E-2,-1.23789355E-1,-6.472587E-3,-3.1150994E-1,1.0268024E-2,4.4687083E-1,5.0070267E-3,1.9170667E-1,-1.05707444E-1,-2.087147E-1,-2.0871185E-2,-9.89178E-2,8.971086E-2,1.995331E-1,3.1798933E-2,1.5117832E-1,2.1449217E-1,3.2911077E-1,8.591705E-2,1.772678E-2,-1.3158296E-1,9.684551E-2,-2.9928842E-1,-2.1985416E-1,8.973487E-4,7.823163E-3,-1.3010199E-2,-6.0664102E-2,-1.7873084E-2,-2.7291915E-1,2.5668893E-2,1.8323636E-2,1.634187E-2,5.5875056E-3,1.5788677E-3,-6.036335E-3,-1.3188747E-2,-7.403185E-3,-2.0215248E-3,8.461245E-3,-1.2105392E-2,-4.33984E-3,7.6913633E-3,-7.3744156E-3,1.1844386E-2,5.1242127E-3,3.3223473E-3,-1.7092947E-3,1.1450082E-2,2.5789477E-3,1.2596242E-2,6.458562E-3,1.9007327E-2,1.3938986E-2,5.8852364E-3,1.3682796E-3,-8.0769975E-3,-3.749864E-3,8.126798E-3,6.227992E-4,-1.2126169E-2,-1.7351082E-2,-6.676854E-3,-1.3585264E-2,-6.3558115E-4,-5.6642885E-3,-6.4699515E-3,-1.5805835E-2],"categories":[],"categories_nodes":[],"categories_segments":[],"categories_sizes":[],"default_left":[0,0,0,0,0,0,0,0,0,0,0,0,0,0,0,0,0,0,0,0,0,0,0,0,0,0,0,0,0,0,0,0,0,0,0,0,0,0,0,0,0,0,0,0,0,0,0,0,0,0,0,0,0,0,0,0,0,0,0,0,0,0,0,0,0,0,0,0,0,0,0,0,0,0,0,0,0,0,0,0,0,0,0,0,0,0,0,0,0,0,0,0,0],"id":11,"left_children":[1,3,5,7,9,11,13,15,17,19,21,23,25,-1,27,29,31,33,35,37,39,41,43,45,47,49,51,-1,53,-1,55,-1,57,59,61,63,65,67,69,71,73,75,77,79,-1,81,83,85,87,-1,-1,-1,89,-1,91,-1,-1,-1,-1,-1,-1,-1,-1,-1,-1,-1,-1,-1,-1,-1,-1,-1,-1,-1,-1,-1,-1,-1,-1,-1,-1,-1,-1,-1,-1,-1,-1,-1,-1,-1,-1,-1,-1],"loss_changes":[2.7565588E1,7.405482E1,2.5421677E0,2.492303E1,6.8322296E0,1.3223133E0,4.875374E-2,1.8749037E0,4.648367E0,4.5667744E-1,5.377037E0,2.3310366E0,9.0929824E-1,0E0,4.023428E-1,1.1368341E0,1.4303565E-1,2.8714657E0,1.172013E0,3.5171914E-1,3.633786E-1,1.8660583E0,1.1364319E0,1.3739159E0,2.5024414E-1,1.5892321E-1,4.044609E-1,0E0,1.0915661E-1,0E0,1.4685822E-1,0E0,4.8529255E-1,9.911318E-1,2.0849628E0,1.3162756E0,7.2075033E-1,1.2474346E0,1.5469146E-1,3.3238092E-1,2.3048383E-1,6.183901E-1,1.3107338E0,3.265748E-1,0E0,3.62221E-1,1.6519374E-1,8.759642E-2,9.034977E-1,0E0,0E0,0E0,8.6037666E-2,0E0,3.7811852E-1,0E0,0E0,0E0,0E0,0E0,0E0,0E0,0E0,0E0,0E0,0E0,0E0,0E0,0E0,0E0,0E0,0E0,0E0,0E0,0E0,0E0,0E0,0E0,0E0,0E0,0E0,0E0,0E0,0E0,0E0,0E0,0E0,0E0,0E0,0E0,0E0,0E0,0E0],"parents":[2147483647,0,0,1,1,2,2,3,3,4,4,5,5,6,6,7,7,8,8,9,9,10,10,11,11,12,12,14,14,15,15,16,16,17,17,18,18,19,19,20,20,21,21,22,22,23,23,24,24,25,25,26,26,28,28,30,30,32,32,33,33,34,34,35,35,36,36,37,37,38,38,39,39,40,40,41,41,42,42,43,43,45,45,46,46,47,47,48,48,52,52,54,54],"right_children":[2,4,6,8,10,12,14,16,18,20,22,24,26,-1,28,30,32,34,36,38,40,42,44,46,48,50,52,-1,54,-1,56,-1,58,60,62,64,66,68,70,72,74,76,78,80,-1,82,84,86,88,-1,-1,-1,90,-1,92,-1,-1,-1,-1,-1,-1,-1,-1,-1,-1,-1,-1,-1,-1,-1,-1,-1,-1,-1,-1,-1,-1,-1,-1,-1,-1,-1,-1,-1,-1,-1,-1,-1,-1,-1,-1,-1,-1],"split_conditions":[8.141104E1,6.0112328E1,8.8622086E1,1.9661118E1,6.482147E1,8.773898E1,8.877784E1,1.4590286E1,4.663551E1,6.193885E1,7.861387E1,8.4794495E1,8.81202E1,-1.9372277E-2,8.892558E1,8.48497E0,1.7100464E1,3.446051E1,5.3082268E1,6.1181408E1,6.4304596E1,6.856994E1,8.121112E1,8.4407486E1,8.556056E1,8.793193E1,8.828675E1,-6.472587E-3,8.9390396E1,1.0268024E-2,1.2157379E1,5.0070267E-3,1.798477E1,2.195288E1,4.0984314E1,5.248184E1,5.3729668E1,6.096376E1,6.1681686E1,6.3461224E1,6.457223E1,6.731352E1,7.353236E1,8.027205E1,1.772678E-2,8.337796E1,8.459728E1,8.521445E1,8.6425476E1,8.973487E-4,7.823163E-3,-1.3010199E-2,8.845157E1,-1.7873084E-2,8.953215E1,2.5668893E-2,1.8323636E-2,1.634187E-2,5.5875056E-3,1.5788677E-3,-6.036335E-3,-1.3188747E-2,-7.403185E-3,-2.0215248E-3,8.461245E-3,-1.2105392E-2,-4.33984E-3,7.6913633E-3,-7.3744156E-3,1.1844386E-2,5.1242127E-3,3.3223473E-3,-1.7092947E-3,1.1450082E-2,2.5789477E-3,1.2596242E-2,6.458562E-3,1.9007327E-2,1.3938986E-2,5.8852364E-3,1.3682796E-3,-8.0769975E-3,-3.749864E-3,8.126798E-3,6.227992E-4,-1.2126169E-2,-1.7351082E-2,-6.676854E-3,-1.3585264E-2,-6.3558115E-4,-5.6642885E-3,-6.4699515E-3,-1.5805835E-2],"split_indices":[1,1,1,1,1,1,1,1,1,1,1,1,1,0,1,1,1,1,1,1,1,1,1,1,1,1,1,0,1,0,1,0,1,1,1,1,1,1,1,1,1,1,1,1,0,1,1,1,1,0,0,0,1,0,1,0,0,0,0,0,0,0,0,0,0,0,0,0,0,0,0,0,0,0,0,0,0,0,0,0,0,0,0,0,0,0,0,0,0,0,0,0,0],"split_type":[0,0,0,0,0,0,0,0,0,0,0,0,0,0,0,0,0,0,0,0,0,0,0,0,0,0,0,0,0,0,0,0,0,0,0,0,0,0,0,0,0,0,0,0,0,0,0,0,0,0,0,0,0,0,0,0,0,0,0,0,0,0,0,0,0,0,0,0,0,0,0,0,0,0,0,0,0,0,0,0,0,0,0,0,0,0,0,0,0,0,0,0,0],"sum_hessian":[4.0604597E3,3.312228E3,7.482316E2,2.064651E3,1.2475771E3,6.009277E2,1.4730396E2,1.7422311E2,1.8904279E3,3.0154755E2,9.460296E2,5.2036005E2,8.0567635E1,1.59516945E1,1.3135225E2,9.402057E1,8.0202545E1,1.1128738E3,7.7755396E2,1.2789878E2,1.7364876E2,7.533461E2,1.9268347E2,2.4899405E2,2.7136603E2,3.2765434E1,4.7802197E1,1.5782814E1,1.1556944E2,3.236948E1,6.1651085E1,3.29067E1,4.7295845E1,4.7783652E2,6.350373E2,3.5117355E2,4.263804E2,7.9531166E1,4.836762E1,1.4338947E2,3.0259295E1,2.0281166E2,5.505345E2,1.761939E2,1.6489569E1,2.1982976E2,2.9164286E1,6.2389057E1,2.0897696E2,1.6374552E1,1.639088E1,1.4134754E1,3.3667442E1,4.898181E1,6.658763E1,3.079301E1,3.0858074E1,1.6433943E1,3.0861902E1,4.701245E1,4.3082407E2,3.3110452E2,3.0393277E2,3.1912552E2,3.2048058E1,3.1795385E1,3.9458502E2,6.288456E1,1.66466E1,3.3884415E1,1.4483205E1,9.40157E1,4.937376E1,1.6257248E1,1.40020485E1,1.3960875E2,6.3202915E1,2.7009985E2,2.8043466E2,1.1354167E2,6.265222E1,1.4252235E2,7.730741E1,1.5878295E1,1.3285992E1,3.1276009E1,3.1113049E1,7.976565E1,1.2921132E2,1.8264837E1,1.5402606E1,1.6329573E1,5.0258057E1],"tree_param":{"num_deleted":"0","num_feature":"2","num_nodes":"93","size_leaf_vector":"1"}},{"base_weights":[3.6322924E-3,4.2098984E-2,-1.8713702E-1,-6.3894056E-2,2.1864693E-1,-1.5111254E-1,-3.2258743E-1,3.7237245E-1,-9.576579E-2,1.2075468E-1,2.5620624E-1,-2.2679684E-1,-1.3734213E-1,-3.9888385E-1,-2.2537616E-1,2.1941323E-2,2.278387E-1,-1.5635173E-1,-4.042812E-2,1.8610756E-1,1.0148479E-1,3.0267838E-1,9.274285E-2,-1.446493E-2,-2.0587726E-1,-3.043177E-2,-1.6972347E-1,-1.3290609E-2,-2.124238E-2,-7.896303E-3,-1.4083765E-2,7.2226585E-3,1.8545454E-2,-1.01250626E-1,-3.205863E-1,-1.7252585E-2,-8.611632E-2,1.09323606E-1,1.1647721E-2,-7.7008456E-2,1.4085923E-1,1.9636667E-1,3.2505402E-1,-9.1394875E-3,1.1577013E-1,-6.0980082E-3,-1.1351948E-2,-1.1150846E-1,1.7744015E-1,-1.8536231E-1,-1.0059216E-1,1.5273376E-3,-6.2874663E-3,-2.1799125E-2,-9.442977E-3,-3.5319445E-3,1.7073661E-3,-9.405504E-3,-2.3485022E-3,9.839075E-3,7.050998E-4,6.188617E-5,-1.1655389E-2,1.4540481E-2,6.316463E-3,1.8213404E-2,4.8839194E-3,1.9071888E-2,1.4098689E-2,1.4190826E-2,3.992224E-3,-8.095019E-3,-1.8427036E-3,1.1818519E-2,5.2757803E-3,-8.659135E-3,-1.3717063E-2,-3.5484936E-4,-6.549671E-3],"categories":[],"categories_nodes":[],"categories_segments":[],"categories_sizes":[],"default_left":[0,0,0,0,0,0,0,0,0,0,0,0,0,0,0,0,0,0,0,0,0,0,0,0,0,0,0,0,0,0,0,0,0,0,0,0,0,0,0,0,0,0,0,0,0,0,0,0,0,0,0,0,0,0,0,0,0,0,0,0,0,0,0,0,0,0,0,0,0,0,0,0,0,0,0,0,0,0,0],"id":12,"left_children":[1,3,5,7,9,11,13,15,17,19,21,23,25,27,29,-1,31,33,35,37,39,41,43,-1,45,47,49,-1,-1,-1,-1,-1,-1,51,53,55,57,59,-1,61,63,65,67,-1,69,-1,-1,71,73,75,77,-1,-1,-1,-1,-1,-1,-1,-1,-1,-1,-1,-1,-1,-1,-1,-1,-1,-1,-1,-1,-1,-1,-1,-1,-1,-1,-1,-1],"loss_changes":[2.9947752E1,6.35656E1,3.2928429E0,2.9553455E1,4.654236E0,5.3458977E-1,9.7063446E-1,1.2901726E0,6.6291447E0,4.2847157E-1,6.9609528E0,4.7689915E-2,1.5935488E0,1.5937614E-1,2.0301318E-1,0E0,5.1508045E-1,8.514116E0,1.09519E0,2.6119328E-1,1.9543858E0,1.6392059E0,1.3224972E0,0E0,8.7605E-2,1.8496509E0,3.643217E-1,0E0,0E0,0E0,0E0,0E0,0E0,2.2919092E0,3.517126E0,1.8914462E0,1.3818705E0,2.6439792E-1,0E0,6.18625E-1,4.5765924E-1,2.0689435E0,1.3253784E0,0E0,1.123779E0,0E0,0E0,2.901888E-1,1.0582209E-1,2.6426888E-1,1.9103396E-1,0E0,0E0,0E0,0E0,0E0,0E0,0E0,0E0,0E0,0E0,0E0,0E0,0E0,0E0,0E0,0E0,0E0,0E0,0E0,0E0,0E0,0E0,0E0,0E0,0E0,0E0,0E0,0E0],"parents":[2147483647,0,0,1,1,2,2,3,3,4,4,5,5,6,6,7,7,8,8,9,9,10,10,11,11,12,12,13,13,14,14,16,16,17,17,18,18,19,19,20,20,21,21,22,22,24,24,25,25,26,26,33,33,34,34,35,35,36,36,37,37,39,39,40,40,41,41,42,42,44,44,47,47,48,48,49,49,50,50],"right_children":[2,4,6,8,10,12,14,16,18,20,22,24,26,28,30,-1,32,34,36,38,40,42,44,-1,46,48,50,-1,-1,-1,-1,-1,-1,52,54,56,58,60,-1,62,64,66,68,-1,70,-1,-1,72,74,76,78,-1,-1,-1,-1,-1,-1,-1,-1,-1,-1,-1,-1,-1,-1,-1,-1,-1,-1,-1,-1,-1,-1,-1,-1,-1,-1,-1,-1],"split_conditions":[8.2295135E1,6.0750366E1,8.8622086E1,1.798477E1,6.649688E1,8.337796E1,8.9390396E1,1.4590286E1,4.280397E1,6.193885E1,7.934342E1,8.2519356E1,8.4794495E1,8.877784E1,8.969376E1,2.1941323E-2,1.7100464E1,3.830886E1,5.537357E1,6.1181408E1,6.271885E1,6.889608E1,7.9580696E1,-1.446493E-2,8.270702E1,8.4407486E1,8.793193E1,-1.3290609E-2,-2.124238E-2,-7.896303E-3,-1.4083765E-2,7.2226585E-3,1.8545454E-2,2.3122421E1,4.0750153E1,4.9007275E1,5.6816036E1,6.096376E1,1.1647721E-2,6.2443726E1,6.299563E1,6.731352E1,7.353236E1,-9.1394875E-3,8.00483E1,-6.0980082E-3,-1.1351948E-2,8.4036446E1,8.459728E1,8.76026E1,8.81202E1,1.5273376E-3,-6.2874663E-3,-2.1799125E-2,-9.442977E-3,-3.5319445E-3,1.7073661E-3,-9.405504E-3,-2.3485022E-3,9.839075E-3,7.050998E-4,6.188617E-5,-1.1655389E-2,1.4540481E-2,6.316463E-3,1.8213404E-2,4.8839194E-3,1.9071888E-2,1.4098689E-2,1.4190826E-2,3.992224E-3,-8.095019E-3,-1.8427036E-3,1.1818519E-2,5.2757803E-3,-8.659135E-3,-1.3717063E-2,-3.5484936E-4,-6.549671E-3],"split_indices":[1,1,1,1,1,1,1,1,1,1,1,1,1,1,1,0,1,1,1,1,1,1,1,0,1,1,1,0,0,0,0,0,0,1,1,1,1,1,0,1,1,1,1,0,1,0,0,1,1,1,1,0,0,0,0,0,0,0,0,0,0,0,0,0,0,0,0,0,0,0,0,0,0,0,0,0,0,0,0],"split_type":[0,0,0,0,0,0,0,0,0,0,0,0,0,0,0,0,0,0,0,0,0,0,0,0,0,0,0,0,0,0,0,0,0,0,0,0,0,0,0,0,0,0,0,0,0,0,0,0,0,0,0,0,0,0,0,0,0,0,0,0,0,0,0,0,0,0,0,0,0,0,0,0,0,0,0,0,0,0,0],"sum_hessian":[4.0789668E3,3.395149E3,6.8381793E2,2.121884E3,1.2732648E3,5.418285E2,1.4198943E2,1.4373456E2,1.9781495E3,3.542318E2,9.1903296E2,8.102624E1,4.6080225E2,7.7813835E1,6.417559E1,9.706821E1,4.6666344E1,9.434245E2,1.034725E3,7.869243E1,2.7553937E2,7.1492914E2,2.041038E2,1.7101803E1,6.392444E1,1.0757433E2,3.5322794E2,1.45383625E1,6.327547E1,3.0927505E1,3.3248085E1,3.0752548E1,1.5913796E1,7.076295E2,2.3579498E2,6.8741064E2,3.4731436E2,3.1081755E1,4.7610672E1,4.9624496E1,2.2591487E2,1.2600886E2,5.889203E2,1.5206974E1,1.8889684E2,1.4235709E1,4.968873E1,7.772333E1,2.985101E1,2.8669144E2,6.6536476E1,1.10879005E2,5.9675055E2,1.2445729E2,1.113377E2,3.3700623E2,3.5040442E2,9.5274895E1,2.5203946E2,1.5645406E1,1.5436348E1,3.371608E1,1.5908415E1,1.82773E1,2.0763757E2,4.5650734E1,8.035812E1,2.5167377E2,3.3724655E2,3.205513E1,1.568417E2,4.57042E1,3.2019123E1,1.5150951E1,1.4700057E1,2.5476503E2,3.1926422E1,1.6629131E1,4.9907345E1],"tree_param":{"num_deleted":"0","num_feature":"2","num_nodes":"79","size_leaf_vector":"1"}},{"base_weights":[-7.4288705E-3,-1.6190764E0,1.6195022E0,-8.108536E-2,-6.0432073E-2,4.5263983E-2,8.122745E-2],"categories":[],"categories_nodes":[],"categories_segments":[],"categories_sizes":[],"default_left":[0,0,0,0,0,0,0],"id":13,"left_children":[1,3,5,-1,-1,-1,-1],"loss_changes":[1.0707595E4,2.548828E-1,5.8549805E0,0E0,0E0,0E0,0E0],"parents":[2147483647,0,0,1,1,2,2],"right_children":[2,4,6,-1,-1,-1,-1],"split_conditions":[1.5185005E1,1.2402389E1,2.4857107E1,-8.108536E-2,-6.0432073E-2,4.5263983E-2,8.122745E-2],"split_indices":[0,0,0,0,0,0,0],"split_type":[0,0,0,0,0,0,0],"sum_hessian":[4.0816895E3,2.0504783E3,2.0312112E3,2.0344862E3,1.5992117E1,1.5518151E1,2.015693E3],"tree_param":{"num_deleted":"0","num_feature":"2","num_nodes":"7","size_leaf_vector":"1"}},{"base_weights":[-6.307827E-5,-7.4182935E-2,6.7834914E-2,2.4562138E-1,-9.881185E-2,1.7897174E-1,-1.0650548E-1,3.2700494E-1,1.4928056E-1,-1.2583613E-1,-4.3214817E-2,3.0002147E-2,2.5070274E-1,-3.1324245E-2,-1.7227319E-1,1.9308111E-1,2.0561779E-2,9.601151E-2,2.0101707E-1,8.714156E-3,-1.3730048E-1,-7.374447E-3,-1.9267295E-1,9.97405E-2,1.3429932E-2,2.695606E-1,1.4122707E-1,2.1043856E-2,-6.918371E-2,-1.6083229E-1,-1.5077782E-2,6.0647638E-3,1.2770365E-2,7.240124E-3,1.8266116E-3,1.2987134E-2,6.6632973E-3,-1.0057519E-1,1.2265571E-1,-1.0164956E-1,-1.59645E-1,-1.3489793E-2,8.04525E-3,-1.937259E-2,-1.0987658E-1,3.261883E-2,9.4845565E-3,-3.0410249E-2,3.8479015E-2,1.8021609E-1,3.0771896E-1,1.1358454E-1,1.8575233E-1,-3.9251447E-2,1.6548198E-1,-8.3751716E-2,1.8461881E-2,-1.4566585E-1,-2.0048746E-1,-3.0249336E-3,-9.005786E-3,4.0158927E-3,7.0606447E-3,-7.748221E-3,-2.8769514E-3,-1.01818135E-2,-6.3846307E-3,1.0639442E-4,-7.081249E-3,-1.8916508E-3,-1.6971357E-2,4.917688E-3,-5.2272496E-3,5.14043E-5,-3.038653E-3,1.4261201E-2,-2.8979892E-4,1.0059664E-2,1.9943614E-3,1.8642655E-2,1.3469556E-2,8.305217E-3,-4.7903145E-3,1.649696E-2,5.189107E-3,8.5207535E-4,-8.819845E-3,1.2794316E-2,5.6242025E-3,-3.2262194E-3,-1.3656542E-2,6.183197E-3,-4.645955E-3,-9.383419E-3,-4.436809E-3,-1.383003E-2,-7.036953E-3],"categories":[],"categories_nodes":[],"categories_segments":[],"categories_sizes":[],"default_left":[0,0,0,0,0,0,0,0,0,0,0,0,0,0,0,0,0,0,0,0,0,0,0,0,0,0,0,0,0,0,0,0,0,0,0,0,0,0,0,0,0,0,0,0,0,0,0,0,0,0,0,0,0,0,0,0,0,0,0,0,0,0,0,0,0,0,0,0,0,0,0,0,0,0,0,0,0,0,0,0,0,0,0,0,0,0,0,0,0,0,0,0,0,0,0,0,0],"id":14,"left_children":[1,3,5,7,9,11,13,15,17,19,21,23,25,27,29,31,-1,33,35,37,39,41,43,45,47,49,51,53,55,57,-1,-1,-1,-1,-1,-1,-1,59,61,63,65,67,-1,-1,69,71,-1,73,75,77,79,81,83,85,87,89,91,93,95,-1,-1,-1,-1,-1,-1,-1,-1,-1,-1,-1,-1,-1,-1,-1,-1,-1,-1,-1,-1,-1,-1,-1,-1,-1,-1,-1,-1,-1,-1,-1,-1,-1,-1,-1,-1,-1,-1],"loss_changes":[2.014816E1,1.5100315E1,4.050383E1,1.0265455E0,2.6658287E0,1.3631828E1,4.019724E0,7.4980783E-1,1.5885973E-1,1.84585E0,3.1217914E0,4.794249E-1,1.7403145E0,7.569727E-1,5.9342194E-1,1.0443914E-1,0E0,9.269863E-2,9.222758E-2,1.1932572E0,8.6164856E-1,4.8720023E-1,1.7754946E0,4.7511327E-1,3.715459E-1,2.4460335E0,1.372807E-1,1.4056993E0,2.8424144E-1,2.1187878E-1,0E0,0E0,0E0,0E0,0E0,0E0,0E0,1.4515519E-1,2.5489628E-2,9.960861E-1,9.2375755E-1,9.122679E-1,0E0,0E0,1.318494E0,4.3278524E-1,0E0,1.1765881E-1,2.3512766E0,6.454849E-1,1.1795769E0,9.1730833E-1,5.2970314E-1,8.8431907E-1,1.9883919E-1,6.743243E-1,3.9084744E-1,6.85431E-1,4.5330143E-1,0E0,0E0,0E0,0E0,0E0,0E0,0E0,0E0,0E0,0E0,0E0,0E0,0E0,0E0,0E0,0E0,0E0,0E0,0E0,0E0,0E0,0E0,0E0,0E0,0E0,0E0,0E0,0E0,0E0,0E0,0E0,0E0,0E0,0E0,0E0,0E0,0E0,0E0],"parents":[2147483647,0,0,1,1,2,2,3,3,4,4,5,5,6,6,7,7,8,8,9,9,10,10,11,11,12,12,13,13,14,14,15,15,17,17,18,18,19,19,20,20,21,21,22,22,23,23,24,24,25,25,26,26,27,27,28,28,29,29,37,37,38,38,39,39,40,40,41,41,44,44,45,45,47,47,48,48,49,49,50,50,51,51,52,52,53,53,54,54,55,55,56,56,57,57,58,58],"right_children":[2,4,6,8,10,12,14,16,18,20,22,24,26,28,30,32,-1,34,36,38,40,42,44,46,48,50,52,54,56,58,-1,-1,-1,-1,-1,-1,-1,60,62,64,66,68,-1,-1,70,72,-1,74,76,78,80,82,84,86,88,90,92,94,96,-1,-1,-1,-1,-1,-1,-1,-1,-1,-1,-1,-1,-1,-1,-1,-1,-1,-1,-1,-1,-1,-1,-1,-1,-1,-1,-1,-1,-1,-1,-1,-1,-1,-1,-1,-1,-1,-1],"split_conditions":[5.8091103E1,1.798477E1,8.027205E1,1.3495712E1,4.785035E1,6.482147E1,8.537342E1,8.48497E0,1.5753296E1,2.2529764E1,5.628043E1,5.9363853E1,7.834328E1,8.2519356E1,8.969376E1,6.3677673E0,2.0561779E-2,1.4590286E1,1.7100464E1,2.0511597E1,3.4836117E1,5.6064217E1,5.6816036E1,5.8920532E1,6.1181408E1,6.889608E1,7.9580696E1,8.182376E1,8.500642E1,8.8622086E1,-1.5077782E-2,6.0647638E-3,1.2770365E-2,7.240124E-3,1.8266116E-3,1.2987134E-2,6.6632973E-3,1.9661118E1,2.1230087E1,2.8972275E1,4.047612E1,5.537357E1,8.04525E-3,-1.937259E-2,5.7837555E1,5.86813E1,9.4845565E-3,6.0301468E1,6.1681686E1,6.829879E1,7.230622E1,7.934342E1,7.982323E1,8.141104E1,8.205613E1,8.4794495E1,8.521445E1,8.726934E1,8.90779E1,-3.0249336E-3,-9.005786E-3,4.0158927E-3,7.0606447E-3,-7.748221E-3,-2.8769514E-3,-1.01818135E-2,-6.3846307E-3,1.0639442E-4,-7.081249E-3,-1.8916508E-3,-1.6971357E-2,4.917688E-3,-5.2272496E-3,5.14043E-5,-3.038653E-3,1.4261201E-2,-2.8979892E-4,1.0059664E-2,1.9943614E-3,1.8642655E-2,1.3469556E-2,8.305217E-3,-4.7903145E-3,1.649696E-2,5.189107E-3,8.5207535E-4,-8.819845E-3,1.2794316E-2,5.6242025E-3,-3.2262194E-3,-1.3656542E-2,6.183197E-3,-4.645955E-3,-9.383419E-3,-4.436809E-3,-1.383003E-2,-7.036953E-3],"split_indices":[1,1,1,1,1,1,1,1,1,1,1,1,1,1,1,1,0,1,1,1,1,1,1,1,1,1,1,1,1,1,0,0,0,0,0,0,0,1,1,1,1,1,0,0,1,1,0,1,1,1,1,1,1,1,1,1,1,1,1,0,0,0,0,0,0,0,0,0,0,0,0,0,0,0,0,0,0,0,0,0,0,0,0,0,0,0,0,0,0,0,0,0,0,0,0,0,0],"split_type":[0,0,0,0,0,0,0,0,0,0,0,0,0,0,0,0,0,0,0,0,0,0,0,0,0,0,0,0,0,0,0,0,0,0,0,0,0,0,0,0,0,0,0,0,0,0,0,0,0,0,0,0,0,0,0,0,0,0,0,0,0,0,0,0,0,0,0,0,0,0,0,0,0,0,0,0,0,0,0,0,0,0,0,0,0,0,0,0,0,0,0,0,0,0,0,0,0],"sum_hessian":[4.0015374E3,1.91307E3,2.0884675E3,1.3615366E2,1.7769163E3,1.2754069E3,8.130606E2,7.250829E1,6.3645367E1,1.1948615E3,5.820548E2,4.1498727E2,8.604196E2,3.8006827E2,4.3299234E2,2.9267017E1,4.3241276E1,3.2765278E1,3.0880089E1,9.383332E1,1.1010281E3,4.7032037E2,1.1173445E2,7.8716774E1,3.3627048E2,7.327385E2,1.276811E2,1.5966293E2,2.2040535E2,3.9985138E2,3.3140965E1,1.4970492E1,1.4296525E1,1.7211857E1,1.5553423E1,1.502386E1,1.5856229E1,4.7954296E1,4.587902E1,4.2634308E2,6.7468506E2,4.5471564E2,1.5604723E1,3.2231094E1,7.950336E1,4.5859093E1,3.2857685E1,1.2219475E2,2.1407573E2,2.2100261E2,5.1173593E2,8.096609E1,4.6715008E1,1.1315495E2,4.6507977E1,1.8903014E2,3.1375206E1,2.9261273E2,1.0723864E2,3.305841E1,1.4895885E1,1.5604893E1,3.027413E1,1.918942E2,2.3444888E2,2.8160507E2,3.9308E2,4.061907E2,4.8524925E1,6.1398495E1,1.8104868E1,3.119299E1,1.4666104E1,6.0508762E1,6.1685986E1,3.1740957E1,1.8233478E2,1.9188481E2,2.9117807E1,1.8634097E2,3.2539496E2,6.4895584E1,1.6070507E1,1.58353195E1,3.0879688E1,8.084636E1,3.2308594E1,1.5773378E1,3.0734598E1,1.7282431E2,1.6205826E1,1.6078444E1,1.5296762E1,1.6705998E2,1.2555276E2,4.556467E1,6.167397E1],"tree_param":{"num_deleted":"0","num_feature":"2","num_nodes":"97","size_leaf_vector":"1"}},{"base_weights":[8.409919E-3,-7.858766E-2,1.5708269E0,4.3930717E-2,7.8791864E-2],"categories":[],"categories_nodes":[],"categories_segments":[],"categories_sizes":[],"default_left":[0,0,0,0,0],"id":15,"left_children":[1,-1,3,-1,-1],"loss_changes":[9.839211E3,0E0,5.565918E0,0E0,0E0],"parents":[2147483647,0,0,2,2],"right_children":[2,-1,4,-1,-1],"split_conditions":[1.5185005E1,-7.858766E-2,2.4857107E1,4.3930717E-2,7.8791864E-2],"split_indices":[0,0,0,0,0],"split_type":[0,0,0,0,0],"sum_hessian":[3.9833035E3,1.980402E3,2.0029016E3,1.5660355E1,1.9872412E3],"tree_param":{"num_deleted":"0","num_feature":"2","num_nodes":"5","size_leaf_vector":"1"}},{"base_weights":[5.2428576E-3,-6.9810286E-2,7.690326E-2,1.8246052E-1,-9.674078E-2,1.8739276E-1,-1.1782619E-1,2.7013296E-1,1.17251314E-1,-1.3328323E-1,-4.2970512E-2,1.1365213E-1,2.4781854E-1,-9.4867006E-2,-2.133066E-1,2.326574E-1,2.0036172E-2,8.951591E-2,9.11666E-3,-6.668686E-2,-1.9197632E-1,1.389367E-2,-5.045705E-2,5.092322E-2,1.3562903E-1,2.8939715E-1,1.2989284E-1,-1.1045297E-1,-3.781803E-2,-2.947691E-1,-1.105181E-1,2.4960142E-1,8.432209E-3,1.24085285E-1,-1.920203E-3,-1.0696127E-1,-3.3957608E-2,-2.2966495E-1,-9.49818E-2,-2.7363315E-2,-1.2892571E-1,7.2034046E-2,-6.1106924E-3,1.5729556E-2,1.21532746E-1,2.5494581E-2,2.8140375E-1,8.981976E-2,2.692422E-2,-8.403463E-2,-1.5032203E-1,1.9645067E-3,-1.0192574E-1,-2.3407362E-1,-1.646784E-2,1.6051161E-3,-1.6204545E-1,1.0355448E-2,1.5691236E-2,3.7124958E-3,1.2990104E-2,1.1263845E-3,-7.082924E-3,7.249642E-3,-3.5533612E-3,-7.6205567E-3,-1.3861311E-2,3.7487408E-3,-8.430683E-3,-4.50936E-3,-4.544893E-4,-1.7711308E-2,-3.2979143E-3,8.139815E-3,2.1818965E-3,6.6558546E-3,-7.600509E-4,1.0418859E-2,1.4720489E-2,6.8643405E-3,-1.3533694E-3,-6.1892E-3,-3.4903202E-4,-1.0750822E-2,-5.0482885E-3,-2.2279972E-3,3.3676464E-3,-1.2755798E-2,-1.0352256E-3,-1.6574953E-2,-6.424705E-3,-6.9669797E-3,-9.758814E-3],"categories":[],"categories_nodes":[],"categories_segments":[],"categories_sizes":[],"default_left":[0,0,0,0,0,0,0,0,0,0,0,0,0,0,0,0,0,0,0,0,0,0,0,0,0,0,0,0,0,0,0,0,0,0,0,0,0,0,0,0,0,0,0,0,0,0,0,0,0,0,0,0,0,0,0,0,0,0,0,0,0,0,0,0,0,0,0,0,0,0,0,0,0,0,0,0,0,0,0,0,0,0,0,0,0,0,0,0,0,0,0,0,0],"id":16,"left_children":[1,3,5,7,9,11,13,15,17,19,21,23,25,27,29,31,-1,33,-1,35,37,-1,39,41,43,45,47,49,51,53,55,57,-1,59,-1,61,63,65,67,69,71,73,-1,-1,75,-1,77,79,-1,81,83,85,87,89,-1,-1,91,-1,-1,-1,-1,-1,-1,-1,-1,-1,-1,-1,-1,-1,-1,-1,-1,-1,-1,-1,-1,-1,-1,-1,-1,-1,-1,-1,-1,-1,-1,-1,-1,-1,-1,-1,-1],"loss_changes":[2.0941286E1,1.2938291E1,4.2876827E1,1.0190568E0,3.3720188E0,5.635887E0,1.5617275E0,2.8666258E-1,1.7711616E-1,3.9858723E0,1.6883132E0,7.84883E-1,3.3838844E0,5.147023E-1,1.1320662E0,2.5913477E-2,0E0,3.4573555E-1,0E0,6.3009596E-1,1.9640388E0,0E0,1.2323304E0,5.593146E-1,1.0332408E0,7.643585E-1,2.9596803E0,4.695773E-1,3.2343513E-1,8.454132E-2,4.6887589E-1,6.461716E-2,0E0,3.9286315E-1,0E0,9.695041E-1,1.7813663E0,1.3926182E0,1.9363308E0,6.055449E-1,2.1727881E0,3.405115E-1,0E0,0E0,6.282468E-1,0E0,4.1288376E-1,9.386333E-1,0E0,8.4946346E-1,5.5685186E-1,2.4390708E-1,5.9880984E-1,2.8044307E-1,0E0,0E0,7.795453E-3,0E0,0E0,0E0,0E0,0E0,0E0,0E0,0E0,0E0,0E0,0E0,0E0,0E0,0E0,0E0,0E0,0E0,0E0,0E0,0E0,0E0,0E0,0E0,0E0,0E0,0E0,0E0,0E0,0E0,0E0,0E0,0E0,0E0,0E0,0E0,0E0],"parents":[2147483647,0,0,1,1,2,2,3,3,4,4,5,5,6,6,7,7,8,8,9,9,10,10,11,11,12,12,13,13,14,14,15,15,17,17,19,19,20,20,22,22,23,23,24,24,25,25,26,26,27,27,28,28,29,29,30,30,31,31,33,33,35,35,36,36,37,37,38,38,39,39,40,40,41,41,44,44,46,46,47,47,49,49,50,50,51,51,52,52,53,53,56,56],"right_children":[2,4,6,8,10,12,14,16,18,20,22,24,26,28,30,32,-1,34,-1,36,38,-1,40,42,44,46,48,50,52,54,56,58,-1,60,-1,62,64,66,68,70,72,74,-1,-1,76,-1,78,80,-1,82,84,86,88,90,-1,-1,92,-1,-1,-1,-1,-1,-1,-1,-1,-1,-1,-1,-1,-1,-1,-1,-1,-1,-1,-1,-1,-1,-1,-1,-1,-1,-1,-1,-1,-1,-1,-1,-1,-1,-1,-1,-1],"split_conditions":[5.8920532E1,2.0511597E1,8.141104E1,1.3495712E1,4.6161835E1,6.889608E1,8.8622086E1,1.2157379E1,1.8958986E1,3.5162186E1,4.63806E1,6.1181408E1,7.861387E1,8.726934E1,8.9390396E1,1.0533996E1,2.0036172E-2,1.798477E1,9.11666E-3,2.8552305E1,4.3132706E1,1.389367E-2,5.628043E1,6.096376E1,6.1681686E1,6.911514E1,8.121112E1,8.521445E1,8.81202E1,8.892558E1,8.953215E1,8.48497E0,8.432209E-3,1.7100464E1,-1.920203E-3,2.2529764E1,2.9843807E1,3.830886E1,4.4105907E1,4.871548E1,5.6816036E1,5.9363853E1,-6.1106924E-3,1.5729556E-2,6.829879E1,2.5494581E-2,7.0615204E1,8.053641E1,2.692422E-2,8.4036446E1,8.609698E1,8.773898E1,8.828675E1,8.877784E1,-1.646784E-2,1.6051161E-3,8.983318E1,1.0355448E-2,1.5691236E-2,3.7124958E-3,1.2990104E-2,1.1263845E-3,-7.082924E-3,7.249642E-3,-3.5533612E-3,-7.6205567E-3,-1.3861311E-2,3.7487408E-3,-8.430683E-3,-4.50936E-3,-4.544893E-4,-1.7711308E-2,-3.2979143E-3,8.139815E-3,2.1818965E-3,6.6558546E-3,-7.600509E-4,1.0418859E-2,1.4720489E-2,6.8643405E-3,-1.3533694E-3,-6.1892E-3,-3.4903202E-4,-1.0750822E-2,-5.0482885E-3,-2.2279972E-3,3.3676464E-3,-1.2755798E-2,-1.0352256E-3,-1.6574953E-2,-6.424705E-3,-6.9669797E-3,-9.758814E-3],"split_indices":[1,1,1,1,1,1,1,1,1,1,1,1,1,1,1,1,0,1,0,1,1,0,1,1,1,1,1,1,1,1,1,1,0,1,0,1,1,1,1,1,1,1,0,0,1,0,1,1,0,1,1,1,1,1,0,0,1,0,0,0,0,0,0,0,0,0,0,0,0,0,0,0,0,0,0,0,0,0,0,0,0,0,0,0,0,0,0,0,0,0,0,0,0],"split_type":[0,0,0,0,0,0,0,0,0,0,0,0,0,0,0,0,0,0,0,0,0,0,0,0,0,0,0,0,0,0,0,0,0,0,0,0,0,0,0,0,0,0,0,0,0,0,0,0,0,0,0,0,0,0,0,0,0,0,0,0,0,0,0,0,0,0,0,0,0,0,0,0,0,0,0,0,0,0,0,0,0,0,0,0,0,0,0,0,0,0,0,0,0],"sum_hessian":[3.8916367E3,1.900834E3,1.9908026E3,1.8278883E2,1.7180452E3,1.2701545E3,7.20648E2,7.662523E1,1.061636E2,1.0220072E3,6.9603796E2,5.73349E2,6.968056E2,5.825595E2,1.380885E2,6.1700592E1,1.4924636E1,7.610569E1,3.0057907E1,4.797702E2,5.42237E2,1.5047426E1,6.8099054E2,1.4961584E2,4.2373312E2,5.1409155E2,1.82714E2,4.5681897E2,1.2574053E2,7.599378E1,6.2094727E1,4.6494495E1,1.52060995E1,5.9937912E1,1.6167778E1,2.1407538E2,2.6569482E2,3.8951678E2,1.5272023E2,5.271858E2,1.538048E2,1.3387611E2,1.5739741E1,2.938265E1,3.943505E2,1.5788286E1,4.9830328E2,1.6750552E2,1.520847E1,2.7662643E2,1.8019255E2,7.818906E1,4.755147E1,3.0405277E1,4.55885E1,1.6580164E1,4.5514565E1,3.052372E1,1.5970775E1,4.4971436E1,1.4966475E1,4.5314323E1,1.6876106E2,4.513536E1,2.2055946E2,1.5002898E2,2.3948781E2,4.6158722E1,1.06561516E2,1.1790304E2,4.0928275E2,3.258578E1,1.2121901E2,3.0775528E1,1.0310058E2,3.6357422E2,3.0776268E1,7.7904526E1,4.2039877E2,1.1900422E2,4.8501312E1,1.8208757E2,9.4538864E1,7.652714E1,1.03665405E2,4.5870396E1,3.231866E1,1.5734276E1,3.1817198E1,1.4700407E1,1.5704871E1,3.0095016E1,1.5419547E1],"tree_param":{"num_deleted":"0","num_feature":"2","num_nodes":"93","size_leaf_vector":"1"}},{"base_weights":[-1.5231886E-2,1.6383452E-2,-1.7736325E-1,-6.097149E-2,1.785948E-1,-1.1069345E-1,-2.084281E-1,1.708374E-1,-7.8422695E-2,2.3079275E-1,2.5701782E-2,-1.1951511E-2,-9.8782375E-2,-2.9142618E-1,-1.7475969E-1,1.1885909E-2,6.840006E-2,-1.2758267E-1,-2.7702272E-2,9.635165E-2,2.6264322E-1,8.3881006E-2,-2.772675E-3,-1.3314505E-1,-8.098802E-2,-2.0791844E-1,-4.2242557E-1,-1.1634038E-1,-2.4810068E-1,-5.2247723E-3,1.4040194E-1,-6.554175E-2,-1.8097837E-1,-2.4717472E-2,-1.0431378E-2,1.4470513E-1,7.329681E-2,2.810733E-1,1.8449143E-1,1.0960795E-1,5.351993E-2,-6.2686644E-2,3.741755E-2,-7.9825506E-2,-1.3819923E-2,-4.2956043E-4,-9.113472E-2,-2.6643664E-1,6.740022E-4,-2.4366733E-2,-1.4065347E-2,-1.9492267E-1,-8.6809725E-2,-2.764076E-1,-2.0962825E-1,2.215863E-3,-2.861709E-3,1.0220195E-2,2.733069E-3,-5.1886677E-3,-1.1793073E-3,-1.7087452E-2,-8.27579E-3,-1.8459338E-3,1.7384001E-3,5.0952923E-3,8.18771E-3,-2.0365526E-3,4.710919E-3,1.171623E-2,1.5500146E-2,4.7440697E-3,1.6023453E-2,3.8556927E-3,6.1022583E-3,-6.2966126E-4,4.732009E-3,-1.857904E-3,-7.333799E-3,1.8441623E-2,-9.5915137E-4,-6.0667004E-3,1.3511403E-3,-8.385139E-3,-3.8398565E-3,-1.1443189E-2,-1.4820838E-2,1.4268196E-3,-1.55498935E-2,3.1743865E-4,-5.865257E-3,-1.2227429E-2,-1.9097367E-2,-8.009062E-3,-1.2523087E-2],"categories":[],"categories_nodes":[],"categories_segments":[],"categories_sizes":[],"default_left":[0,0,0,0,0,0,0,0,0,0,0,0,0,0,0,0,0,0,0,0,0,0,0,0,0,0,0,0,0,0,0,0,0,0,0,0,0,0,0,0,0,0,0,0,0,0,0,0,0,0,0,0,0,0,0,0,0,0,0,0,0,0,0,0,0,0,0,0,0,0,0,0,0,0,0,0,0,0,0,0,0,0,0,0,0,0,0,0,0,0,0,0,0,0,0],"id":17,"left_children":[1,3,5,7,9,11,13,15,17,19,21,-1,23,25,27,-1,29,31,33,35,37,39,41,43,45,47,49,51,53,55,57,59,61,63,-1,65,67,69,71,73,75,77,79,81,-1,-1,83,85,-1,-1,-1,87,89,91,93,-1,-1,-1,-1,-1,-1,-1,-1,-1,-1,-1,-1,-1,-1,-1,-1,-1,-1,-1,-1,-1,-1,-1,-1,-1,-1,-1,-1,-1,-1,-1,-1,-1,-1,-1,-1,-1,-1,-1,-1],"loss_changes":[1.9936031E1,4.0855495E1,1.2913342E0,8.932544E0,8.384304E0,2.8800535E-1,1.1556797E0,1.0434437E0,5.110751E0,3.3301544E0,4.4536144E-1,0E0,1.043216E-1,1.2589445E0,1.2979717E0,0E0,3.3206117E-1,3.437683E0,5.4070824E-1,1.5847147E-1,8.598137E-1,6.3125074E-2,4.3907857E-1,4.5662844E-1,9.219742E-2,1.0031798E0,2.9303932E-1,3.874612E-1,9.062576E-2,8.464539E-2,1.6242522E-1,7.7266264E-1,1.3332577E0,7.2384256E-1,0E0,2.2398353E-2,2.5368035E-1,6.174431E-1,1.4767723E0,9.525418E-3,1.1664576E-1,1.5148115E-1,2.0550961E0,2.120736E-1,0E0,0E0,1.0887951E-1,9.54628E-4,0E0,0E0,0E0,1.2226509E0,3.6569786E-1,1.6030598E-1,8.499718E-2,0E0,0E0,0E0,0E0,0E0,0E0,0E0,0E0,0E0,0E0,0E0,0E0,0E0,0E0,0E0,0E0,0E0,0E0,0E0,0E0,0E0,0E0,0E0,0E0,0E0,0E0,0E0,0E0,0E0,0E0,0E0,0E0,0E0,0E0,0E0,0E0,0E0,0E0,0E0,0E0],"parents":[2147483647,0,0,1,1,2,2,3,3,4,4,5,5,6,6,7,7,8,8,9,9,10,10,12,12,13,13,14,14,16,16,17,17,18,18,19,19,20,20,21,21,22,22,23,23,24,24,25,25,26,26,27,27,28,28,29,29,30,30,31,31,32,32,33,33,35,35,36,36,37,37,38,38,39,39,40,40,41,41,42,42,43,43,46,46,47,47,51,51,52,52,53,53,54,54],"right_children":[2,4,6,8,10,12,14,16,18,20,22,-1,24,26,28,-1,30,32,34,36,38,40,42,44,46,48,50,52,54,56,58,60,62,64,-1,66,68,70,72,74,76,78,80,82,-1,-1,84,86,-1,-1,-1,88,90,92,94,-1,-1,-1,-1,-1,-1,-1,-1,-1,-1,-1,-1,-1,-1,-1,-1,-1,-1,-1,-1,-1,-1,-1,-1,-1,-1,-1,-1,-1,-1,-1,-1,-1,-1,-1,-1,-1,-1,-1,-1],"split_conditions":[8.270702E1,6.3748924E1,8.537342E1,1.8958986E1,7.861387E1,8.294993E1,8.678781E1,1.4590286E1,4.6161835E1,6.649688E1,8.00483E1,-1.1951511E-2,8.381744E1,8.6240326E1,8.8622086E1,1.1885909E-2,1.7100464E1,3.4836117E1,6.3461224E1,6.457223E1,7.642317E1,7.934342E1,8.121112E1,8.359922E1,8.4036446E1,8.609698E1,8.660584E1,8.726934E1,8.9390396E1,1.5753296E1,1.798477E1,2.8972275E1,3.585379E1,6.0750366E1,-1.0431378E-2,6.403936E1,6.482147E1,7.034537E1,7.782519E1,7.886067E1,7.9580696E1,8.097641E1,8.141104E1,8.337796E1,-1.3819923E-2,-4.2956043E-4,8.421207E1,8.573992E1,6.740022E-4,-2.4366733E-2,-1.4065347E-2,8.6961296E1,8.76026E1,8.923954E1,8.969376E1,2.215863E-3,-2.861709E-3,1.0220195E-2,2.733069E-3,-5.1886677E-3,-1.1793073E-3,-1.7087452E-2,-8.27579E-3,-1.8459338E-3,1.7384001E-3,5.0952923E-3,8.18771E-3,-2.0365526E-3,4.710919E-3,1.171623E-2,1.5500146E-2,4.7440697E-3,1.6023453E-2,3.8556927E-3,6.1022583E-3,-6.2966126E-4,4.732009E-3,-1.857904E-3,-7.333799E-3,1.8441623E-2,-9.5915137E-4,-6.0667004E-3,1.3511403E-3,-8.385139E-3,-3.8398565E-3,-1.1443189E-2,-1.4820838E-2,1.4268196E-3,-1.55498935E-2,3.1743865E-4,-5.865257E-3,-1.2227429E-2,-1.9097367E-2,-8.009062E-3,-1.2523087E-2],"split_indices":[1,1,1,1,1,1,1,1,1,1,1,0,1,1,1,0,1,1,1,1,1,1,1,1,1,1,1,1,1,1,1,1,1,1,0,1,1,1,1,1,1,1,1,1,0,0,1,1,0,0,0,1,1,1,1,0,0,0,0,0,0,0,0,0,0,0,0,0,0,0,0,0,0,0,0,0,0,0,0,0,0,0,0,0,0,0,0,0,0,0,0,0,0,0,0],"split_type":[0,0,0,0,0,0,0,0,0,0,0,0,0,0,0,0,0,0,0,0,0,0,0,0,0,0,0,0,0,0,0,0,0,0,0,0,0,0,0,0,0,0,0,0,0,0,0,0,0,0,0,0,0,0,0,0,0,0,0,0,0,0,0,0,0,0,0,0,0,0,0,0,0,0,0,0,0,0,0,0,0,0,0,0,0,0,0,0,0,0,0,0,0,0,0],"sum_hessian":[3.8877546E3,3.2541082E3,6.3364655E2,2.203793E3,1.0503152E3,2.0285423E2,4.307923E2,1.5367664E2,2.0501162E3,7.826184E2,2.6769675E2,1.5608743E1,1.872455E2,1.2211161E2,3.0868066E2,9.217527E1,6.1501358E1,1.0403032E3,1.00981305E3,1.506689E2,6.319495E2,8.732593E1,1.8037083E2,6.1670734E1,1.2557476E2,7.615349E1,4.5958122E1,1.7325877E2,1.354219E2,3.0866524E1,3.0634836E1,4.8222702E2,5.5807623E2,9.945423E2,1.5270758E1,4.6941277E1,1.03727615E2,5.0925772E2,1.2269179E2,4.58576E1,4.1468327E1,7.219125E1,1.0817957E2,4.607766E1,1.5593073E1,1.566334E1,1.0991142E2,6.0072266E1,1.608122E1,2.9798574E1,1.6159548E1,4.5795185E1,1.2746359E2,7.4455284E1,6.0966618E1,1.5883986E1,1.4982536E1,1.6748648E1,1.38861885E1,2.5154027E2,2.3068677E2,4.711373E1,5.1096252E2,8.2558417E2,1.6895811E2,1.6413416E1,3.0527863E1,1.59343815E1,8.7793236E1,1.9815309E2,3.111046E2,7.4978386E1,4.771341E1,1.4686683E1,3.117092E1,1.6167677E1,2.530065E1,5.64697E1,1.5721558E1,1.4975675E1,9.3203896E1,3.3088028E1,1.2989633E1,1.5648086E1,9.4263336E1,3.0491903E1,2.9580362E1,1.5913635E1,2.9881552E1,3.1630228E1,9.583337E1,5.97391E1,1.4716178E1,2.98015E1,3.1165117E1],"tree_param":{"num_deleted":"0","num_feature":"2","num_nodes":"95","size_leaf_vector":"1"}},{"base_weights":[-2.0181627E-3,2.6389772E-2,-1.441084E-1,-4.4201035E-2,1.8434943E-1,-1.2029924E-1,-2.6646253E-1,2.1434529E-1,-6.453372E-2,2.1345268E-1,7.763113E-2,-1.394852E-1,-6.859115E-2,-1.7695038E-2,-1.9975463E-1,3.1022888E-1,1.3716482E-1,-1.032566E-1,-1.0300382E-2,1.4227527E-1,2.4236915E-1,-6.620312E-2,1.023332E-1,-9.995775E-2,-1.7333445E-1,1.1438327E-1,-1.1555307E-1,-6.586022E-2,-1.7196057E-2,1.3351619E-2,3.6931172E-1,6.302044E-2,2.0734686E-1,-5.80955E-2,-1.3432454E-1,7.462155E-2,-3.4728844E-2,1.5976693E-1,-5.146527E-3,2.8279117E-1,2.0647968E-1,4.0724012E-4,-6.8618576E-3,1.982278E-2,7.573661E-2,-1.5224348E-1,1.2871676E-2,-2.0079878E-1,-1.427353E-1,3.907258E-3,7.198736E-3,-1.0923055E-2,-1.0047442E-1,-1.346727E-3,-4.9653915E-3,2.126344E-2,1.4062419E-2,5.527329E-3,-1.6804868E-3,1.2623334E-2,5.547542E-3,-4.42557E-3,-1.1689488E-3,-1.0714515E-2,-4.461221E-3,1.5826307E-2,2.6225117E-3,-4.392117E-3,2.4092037E-4,1.7232394E-2,7.2273673E-3,1.1296782E-2,1.608895E-2,3.5606069E-3,1.2103723E-2,2.4660758E-3,9.431944E-3,-7.960532E-3,-5.007191E-3,-2.517226E-3,3.645484E-3,-8.554839E-3,-1.34975985E-2,-5.081182E-3,-1.1838547E-2,-2.685922E-3,-8.152228E-3],"categories":[],"categories_nodes":[],"categories_segments":[],"categories_sizes":[],"default_left":[0,0,0,0,0,0,0,0,0,0,0,0,0,0,0,0,0,0,0,0,0,0,0,0,0,0,0,0,0,0,0,0,0,0,0,0,0,0,0,0,0,0,0,0,0,0,0,0,0,0,0,0,0,0,0,0,0,0,0,0,0,0,0,0,0,0,0,0,0,0,0,0,0,0,0,0,0,0,0,0,0,0,0,0,0,0,0],"id":18,"left_children":[1,3,5,7,9,11,13,15,17,19,21,23,25,-1,27,29,31,33,35,37,39,41,43,45,47,49,51,53,-1,-1,55,57,59,61,63,65,67,69,-1,71,73,-1,-1,-1,75,77,79,81,83,-1,-1,-1,85,-1,-1,-1,-1,-1,-1,-1,-1,-1,-1,-1,-1,-1,-1,-1,-1,-1,-1,-1,-1,-1,-1,-1,-1,-1,-1,-1,-1,-1,-1,-1,-1,-1,-1],"loss_changes":[1.5854848E1,3.650917E1,1.8744555E0,1.191152E1,3.1242256E0,5.357399E-1,5.463209E-1,1.1802845E0,4.406973E0,1.5997124E0,7.822478E-1,5.177884E-1,1.3083553E0,0E0,1.1799431E0,8.7432384E-2,4.7264612E-1,1.7102499E0,1.8188082E0,1.0106535E0,7.5865173E-1,1.7326973E-1,1.4301616E0,1.1043136E0,1.5125227E-1,2.2298336E-2,1.6493416E-1,4.099056E-2,0E0,0E0,1.9244432E-2,2.1876296E-1,1.7865133E-1,5.2676463E-1,2.5944185E0,1.0340717E0,1.4300015E0,5.601001E-1,0E0,5.084305E-1,1.4369717E0,0E0,0E0,0E0,5.049029E-1,3.0433416E-2,2.3174764E-1,1.804967E-1,3.807869E-1,0E0,0E0,0E0,3.0397105E-1,0E0,0E0,0E0,0E0,0E0,0E0,0E0,0E0,0E0,0E0,0E0,0E0,0E0,0E0,0E0,0E0,0E0,0E0,0E0,0E0,0E0,0E0,0E0,0E0,0E0,0E0,0E0,0E0,0E0,0E0,0E0,0E0,0E0,0E0],"parents":[2147483647,0,0,1,1,2,2,3,3,4,4,5,5,6,6,7,7,8,8,9,9,10,10,11,11,12,12,14,14,15,15,16,16,17,17,18,18,19,19,20,20,21,21,22,22,23,23,24,24,25,25,26,26,27,27,30,30,31,31,32,32,33,33,34,34,35,35,36,36,37,37,39,39,40,40,44,44,45,45,46,46,47,47,48,48,52,52],"right_children":[2,4,6,8,10,12,14,16,18,20,22,24,26,-1,28,30,32,34,36,38,40,42,44,46,48,50,52,54,-1,-1,56,58,60,62,64,66,68,70,-1,72,74,-1,-1,-1,76,78,80,82,84,-1,-1,-1,86,-1,-1,-1,-1,-1,-1,-1,-1,-1,-1,-1,-1,-1,-1,-1,-1,-1,-1,-1,-1,-1,-1,-1,-1,-1,-1,-1,-1,-1,-1,-1,-1,-1,-1],"split_conditions":[8.2295135E1,6.4304596E1,8.892558E1,1.9661118E1,7.9119316E1,8.726934E1,8.9390396E1,1.3495712E1,4.9351475E1,6.856994E1,7.9580696E1,8.4794495E1,8.76026E1,-1.7695038E-2,8.969376E1,1.0533996E1,1.7100464E1,3.5162186E1,5.3082268E1,6.829879E1,7.353236E1,7.934342E1,7.982323E1,8.4036446E1,8.609698E1,8.745298E1,8.773898E1,8.953215E1,-1.7196057E-2,1.3351619E-2,1.2157379E1,1.5753296E1,1.8958986E1,2.9485077E1,4.047612E1,4.9627808E1,5.8091103E1,6.457223E1,-5.146527E-3,7.0615204E1,7.4646225E1,4.0724012E-4,-6.8618576E-3,1.982278E-2,8.182376E1,8.381744E1,8.4407486E1,8.573992E1,8.6961296E1,3.907258E-3,7.198736E-3,-1.0923055E-2,8.845157E1,-1.346727E-3,-4.9653915E-3,2.126344E-2,1.4062419E-2,5.527329E-3,-1.6804868E-3,1.2623334E-2,5.547542E-3,-4.42557E-3,-1.1689488E-3,-1.0714515E-2,-4.461221E-3,1.5826307E-2,2.6225117E-3,-4.392117E-3,2.4092037E-4,1.7232394E-2,7.2273673E-3,1.1296782E-2,1.608895E-2,3.5606069E-3,1.2103723E-2,2.4660758E-3,9.431944E-3,-7.960532E-3,-5.007191E-3,-2.517226E-3,3.645484E-3,-8.554839E-3,-1.34975985E-2,-5.081182E-3,-1.1838547E-2,-2.685922E-3,-8.152228E-3],"split_indices":[1,1,1,1,1,1,1,1,1,1,1,1,1,0,1,1,1,1,1,1,1,1,1,1,1,1,1,1,0,0,1,1,1,1,1,1,1,1,0,1,1,0,0,0,1,1,1,1,1,0,0,0,1,0,0,0,0,0,0,0,0,0,0,0,0,0,0,0,0,0,0,0,0,0,0,0,0,0,0,0,0,0,0,0,0,0,0],"split_type":[0,0,0,0,0,0,0,0,0,0,0,0,0,0,0,0,0,0,0,0,0,0,0,0,0,0,0,0,0,0,0,0,0,0,0,0,0,0,0,0,0,0,0,0,0,0,0,0,0,0,0,0,0,0,0,0,0,0,0,0,0,0,0,0,0,0,0,0,0,0,0,0,0,0,0,0,0,0,0,0,0,0,0,0,0,0,0],"sum_hessian":[3.9259373E3,3.272487E3,6.534502E2,2.2622344E3,1.01025275E3,5.4866705E2,1.0478314E2,1.6424068E2,2.0979937E3,7.929944E2,2.172584E2,3.9894397E2,1.4972308E2,4.348257E1,6.1300575E1,7.1898964E1,9.234172E1,1.2235026E3,8.7449097E2,2.3080115E2,5.6219324E2,3.1596935E1,1.8566147E2,1.8585963E2,2.1308434E2,3.0286045E1,1.1943704E2,3.2537895E1,2.876268E1,4.4721756E1,2.7177206E1,4.5826214E1,4.651551E1,4.99821E2,7.236816E2,1.9489894E2,6.7959204E2,2.1575853E2,1.504262E1,2.6116525E2,3.0102795E2,1.5870931E1,1.5726006E1,1.4243318E1,1.7141815E2,1.26766205E2,5.9093426E1,1.0936307E2,1.03721275E2,1.5250664E1,1.503538E1,1.3540235E1,1.0589681E2,1.5871836E1,1.666606E1,1.42765255E1,1.2900681E1,3.0621471E1,1.5204743E1,3.0582016E1,1.5933493E1,2.6558594E2,2.3423509E2,2.596147E2,4.6406693E2,1.524869E1,1.7965025E2,2.895261E2,3.9006592E2,1.47642145E1,2.0099431E2,1.0900267E2,1.521626E2,6.333654E1,2.376914E2,1.4008104E2,3.1337107E1,1.1000025E2,1.6765953E1,2.8863478E1,3.0229946E1,7.893419E1,3.0428879E1,7.361712E1,3.0104158E1,6.1671143E1,4.4225666E1],"tree_param":{"num_deleted":"0","num_feature":"2","num_nodes":"87","size_leaf_vector":"1"}},{"base_weights":[-7.569784E-3,-1.5277807E0,1.5282369E0,-7.652276E-2,-5.6970656E-2,4.4081364E-2,7.6642685E-2],"categories":[],"categories_nodes":[],"categories_segments":[],"categories_sizes":[],"default_left":[0,0,0,0,0,0,0],"id":19,"left_children":[1,3,5,-1,-1,-1,-1],"loss_changes":[9.0825205E3,2.866211E-1,4.425293E0,0E0,0E0,0E0,0E0],"parents":[2147483647,0,0,1,1,2,2],"right_children":[2,4,6,-1,-1,-1,-1],"split_conditions":[1.5185005E1,1.2402389E1,2.4857107E1,-7.652276E-2,-5.6970656E-2,4.4081364E-2,7.6642685E-2],"split_indices":[0,0,0,0,0,0,0],"split_type":[0,0,0,0,0,0,0],"sum_hessian":[3.8881465E3,1.9539971E3,1.9341494E3,1.9377122E3,1.62849E1,1.5072863E1,1.9190765E3],"tree_param":{"num_deleted":"0","num_feature":"2","num_nodes":"7","size_leaf_vector":"1"}},{"base_weights":[-3.384053E-3,-6.1522707E-2,5.579985E-2,1.46223E-1,-8.821501E-2,1.4989413E-1,-1.021999E-1,2.108141E-1,1.01611E-1,-1.3028549E-1,-5.008571E-2,2.530722E-2,1.8372726E-1,-8.272137E-2,-1.9524483E-1,1.339289E-1,1.2359371E-2,7.316712E-2,1.0188273E-2,-8.545236E-2,-2.1989007E-1,-4.5483742E-2,-1.4374711E-2,9.245014E-2,-4.9043585E-2,1.7863543E-1,2.4684554E-2,-1.42598525E-2,-7.74828E-2,-1.7075269E-1,-1.6570983E-2,8.987308E-3,4.0925625E-3,1.18456766E-1,3.9434616E-2,-1.9315141E-1,-7.175814E-2,-3.0202314E-1,-1.6726144E-1,-3.277484E-2,-7.641603E-2,2.9787207E-2,2.1371458E-1,-1.2857129E-1,-7.578915E-4,2.0252328E-1,7.0211954E-2,4.9290147E-2,-8.889244E-2,-2.1783341E-1,-1.055863E-1,4.491161E-3,8.136438E-3,-1.5223348E-3,3.0664017E-3,-6.9927783E-3,-1.810546E-2,-1.839605E-3,-5.113492E-3,-9.360474E-3,-1.9076493E-2,-4.067564E-3,-1.3341649E-2,-3.930184E-3,-6.0150825E-4,-8.236837E-3,-1.3352815E-3,7.80552E-3,4.0070154E-4,1.3148013E-2,5.0849305E-3,-9.102748E-3,-4.9195956E-3,4.2747227E-3,-6.720323E-3,6.596196E-3,1.1789787E-2,3.8187797E-4,5.259342E-3,-5.2220947E-3,6.6845487E-3,-2.7685757E-3,-5.308898E-3,-7.7404575E-3,-1.8268052E-2,-1.1369445E-3,-7.3679197E-3],"categories":[],"categories_nodes":[],"categories_segments":[],"categories_sizes":[],"default_left":[0,0,0,0,0,0,0,0,0,0,0,0,0,0,0,0,0,0,0,0,0,0,0,0,0,0,0,0,0,0,0,0,0,0,0,0,0,0,0,0,0,0,0,0,0,0,0,0,0,0,0,0,0,0,0,0,0,0,0,0,0,0,0,0,0,0,0,0,0,0,0,0,0,0,0,0,0,0,0,0,0,0,0,0,0,0,0],"id":20,"left_children":[1,3,5,7,9,11,13,15,17,19,21,23,25,27,29,31,-1,33,-1,35,37,39,-1,41,43,45,-1,-1,47,49,-1,-1,-1,51,53,55,57,59,61,63,65,67,69,71,73,75,77,79,81,83,85,-1,-1,-1,-1,-1,-1,-1,-1,-1,-1,-1,-1,-1,-1,-1,-1,-1,-1,-1,-1,-1,-1,-1,-1,-1,-1,-1,-1,-1,-1,-1,-1,-1,-1,-1,-1],"loss_changes":[1.3025784E1,1.0602243E1,2.7905113E1,6.0618067E-1,2.7089853E0,4.9530926E0,1.2539663E0,2.1312237E-1,3.6502135E-1,3.2118826E0,9.5889306E-1,1.2642943E0,1.3714371E0,5.943961E-1,3.455634E-1,5.7964027E-2,0E0,1.539641E-1,0E0,7.79089E-1,1.1059971E0,3.4104252E-1,0E0,1.003883E0,4.622466E-1,2.3464108E0,0E0,0E0,8.25866E-1,2.9687762E-1,0E0,0E0,0E0,4.0940225E-2,9.521008E-2,4.9018145E-1,5.0682735E-1,8.710594E-1,1.3923626E0,5.895993E-1,1.1096481E0,2.430332E-1,2.2222376E-1,5.54955E-2,8.866728E-1,1.7220917E0,3.626774E-1,6.307677E-1,2.9623365E-1,4.9748302E-1,1.547041E-1,0E0,0E0,0E0,0E0,0E0,0E0,0E0,0E0,0E0,0E0,0E0,0E0,0E0,0E0,0E0,0E0,0E0,0E0,0E0,0E0,0E0,0E0,0E0,0E0,0E0,0E0,0E0,0E0,0E0,0E0,0E0,0E0,0E0,0E0,0E0,0E0],"parents":[2147483647,0,0,1,1,2,2,3,3,4,4,5,5,6,6,7,7,8,8,9,9,10,10,11,11,12,12,13,13,14,14,15,15,17,17,19,19,20,20,21,21,23,23,24,24,25,25,28,28,29,29,33,33,34,34,35,35,36,36,37,37,38,38,39,39,40,40,41,41,42,42,43,43,44,44,45,45,46,46,47,47,48,48,49,49,50,50],"right_children":[2,4,6,8,10,12,14,16,18,20,22,24,26,28,30,32,-1,34,-1,36,38,40,-1,42,44,46,-1,-1,48,50,-1,-1,-1,52,54,56,58,60,62,64,66,68,70,72,74,76,78,80,82,84,86,-1,-1,-1,-1,-1,-1,-1,-1,-1,-1,-1,-1,-1,-1,-1,-1,-1,-1,-1,-1,-1,-1,-1,-1,-1,-1,-1,-1,-1,-1,-1,-1,-1,-1,-1,-1],"split_conditions":[5.9912205E1,2.2529764E1,8.141104E1,1.4590286E1,4.3132706E1,6.403936E1,8.877784E1,8.48497E0,2.1230087E1,3.7752716E1,5.961828E1,6.193885E1,8.121112E1,8.160274E1,8.983318E1,6.3677673E0,1.2359371E-2,1.798477E1,1.0188273E-2,2.4906128E1,3.9866333E1,5.537357E1,-1.4374711E-2,6.1181408E1,6.271885E1,7.861387E1,2.4684554E-2,-1.42598525E-2,8.2295135E1,8.9390396E1,-1.6570983E-2,8.987308E-3,4.0925625E-3,1.7100464E1,1.8958986E1,2.4392479E1,3.1955841E1,3.8572784E1,4.1542053E1,4.6902313E1,5.6816036E1,6.0112328E1,6.1681686E1,6.2162834E1,6.3461224E1,6.856994E1,7.9580696E1,8.182376E1,8.4794495E1,8.923954E1,8.953215E1,4.491161E-3,8.136438E-3,-1.5223348E-3,3.0664017E-3,-6.9927783E-3,-1.810546E-2,-1.839605E-3,-5.113492E-3,-9.360474E-3,-1.9076493E-2,-4.067564E-3,-1.3341649E-2,-3.930184E-3,-6.0150825E-4,-8.236837E-3,-1.3352815E-3,7.80552E-3,4.0070154E-4,1.3148013E-2,5.0849305E-3,-9.102748E-3,-4.9195956E-3,4.2747227E-3,-6.720323E-3,6.596196E-3,1.1789787E-2,3.8187797E-4,5.259342E-3,-5.2220947E-3,6.6845487E-3,-2.7685757E-3,-5.308898E-3,-7.7404575E-3,-1.8268052E-2,-1.1369445E-3,-7.3679197E-3],"split_indices":[1,1,1,1,1,1,1,1,1,1,1,1,1,1,1,1,0,1,0,1,1,1,0,1,1,1,0,0,1,1,0,0,0,1,1,1,1,1,1,1,1,1,1,1,1,1,1,1,1,1,1,0,0,0,0,0,0,0,0,0,0,0,0,0,0,0,0,0,0,0,0,0,0,0,0,0,0,0,0,0,0,0,0,0,0,0,0],"split_type":[0,0,0,0,0,0,0,0,0,0,0,0,0,0,0,0,0,0,0,0,0,0,0,0,0,0,0,0,0,0,0,0,0,0,0,0,0,0,0,0,0,0,0,0,0,0,0,0,0,0,0,0,0,0,0,0,0,0,0,0,0,0,0,0,0,0,0,0,0,0,0,0,0,0,0,0,0,0,0,0,0,0,0,0,0,0,0],"sum_hessian":[3.7836072E3,1.9086381E3,1.8749691E3,2.1680109E2,1.691837E3,1.1751677E3,6.9980145E2,8.704629E1,1.297548E2,8.031993E2,8.886377E2,2.5134923E2,9.238185E2,5.802234E2,1.19578064E2,2.9458836E1,5.758745E1,1.0283709E2,2.6917719E1,5.366455E2,2.6655377E2,8.729087E2,1.5729018E1,1.3194875E2,1.1940049E2,9.1043884E2,1.3379659E1,1.3285479E1,5.669379E2,1.0325986E2,1.6318203E1,1.4367229E1,1.5091606E1,4.2826324E1,6.001076E1,5.905997E1,4.7758554E2,1.0224692E2,1.6430687E2,6.201657E2,2.5274297E2,8.781587E1,4.413287E1,4.4479298E1,7.4921196E1,7.4535455E2,1.6508427E2,4.653753E1,5.204004E2,5.858863E1,4.467123E1,2.7845648E1,1.4980678E1,1.4222733E1,4.578803E1,4.6287006E1,1.27729645E1,2.2357593E2,2.5400961E2,4.320717E1,5.903975E1,8.917975E1,7.512712E1,1.9237798E2,4.2778775E2,9.018929E1,1.6255368E2,1.2003623E1,7.581225E1,2.9719666E1,1.4413205E1,1.42294855E1,3.0249813E1,4.5753628E1,2.9167566E1,2.4034402E2,5.0501053E2,5.962542E1,1.05458855E2,1.6410019E1,3.012751E1,1.7848227E2,3.4191812E2,4.248728E1,1.6101347E1,1.5491329E1,2.91799E1],"tree_param":{"num_deleted":"0","num_feature":"2","num_nodes":"87","size_leaf_vector":"1"}},{"base_weights":[6.1215344E-3,-7.437776E-2,1.4874892E0,3.879879E-2,7.467286E-2],"categories":[],"categories_nodes":[],"categories_segments":[],"categories_sizes":[],"default_left":[0,0,0,0,0],"id":21,"left_children":[1,-1,3,-1,-1],"loss_changes":[8.379894E3,0E0,6.915039E0,0E0,0E0],"parents":[2147483647,0,0,2,2],"right_children":[2,-1,4,-1,-1],"split_conditions":[1.5185005E1,-7.437776E-2,2.4857107E1,3.879879E-2,7.467286E-2],"split_indices":[0,0,0,0,0],"split_type":[0,0,0,0,0],"sum_hessian":[3.785207E3,1.8847709E3,1.9004362E3,1.6897638E1,1.8835385E3],"tree_param":{"num_deleted":"0","num_feature":"2","num_nodes":"5","size_leaf_vector":"1"}},{"base_weights":[6.812137E-3,-3.8323622E-2,5.6294046E-2,2.4156749E-1,-5.775242E-2,1.4816424E-1,-7.365844E-2,1.4454836E-2,1.8224683E-1,-8.076162E-2,-3.0558709E-2,4.624162E-2,1.8779829E-1,-1.7505527E-2,-1.1073805E-1,8.160945E-3,1.1351065E-2,-3.278262E-2,-1.5230952E-1,-1.1942398E-3,-7.160675E-2,1.4717537E-1,2.060763E-2,2.1742666E-1,1.208253E-1,-3.5501737E-2,1.5441194E-1,-1.9129108E-1,-7.197926E-2,4.518569E-2,-4.5858756E-2,-2.0995356E-1,-1.13344535E-1,-4.553935E-2,2.42348E-2,-1.2157827E-1,-1.1747521E-2,1.1363671E-1,1.1389287E-2,-7.946481E-2,5.57813E-2,1.3704567E-1,2.4448511E-1,4.675513E-2,1.5412772E-1,-1.20627135E-2,-1.1808135E-1,1.2170385E-2,2.4607123E-3,-1.6691235E-1,-2.015342E-2,-1.3416475E-2,-1.5172361E-1,6.8855414E-4,1.0125295E-2,-6.046738E-3,-5.2658375E-4,-6.8041505E-3,-1.336418E-2,-5.0472594E-3,-1.3759387E-2,1.0792074E-4,-6.8351887E-3,2.2246947E-3,-1.3995895E-3,-1.2128112E-2,-5.520924E-3,3.647089E-3,-1.5492018E-3,8.045553E-3,4.246686E-3,-1.4957518E-3,-4.7486643E-3,1.811467E-3,3.7450797E-3,8.965462E-3,-1.0764672E-4,1.8923944E-2,1.1625226E-2,6.393893E-3,-2.457966E-4,1.5441596E-2,4.8385817E-3,-4.8331246E-3,1.394867E-4,-6.626484E-3,-3.2926097E-3,-9.557742E-3,-4.0414925E-3,-1.5477064E-3,8.453603E-3,-6.6405586E-3,-1.4050955E-2],"categories":[],"categories_nodes":[],"categories_segments":[],"categories_sizes":[],"default_left":[0,0,0,0,0,0,0,0,0,0,0,0,0,0,0,0,0,0,0,0,0,0,0,0,0,0,0,0,0,0,0,0,0,0,0,0,0,0,0,0,0,0,0,0,0,0,0,0,0,0,0,0,0,0,0,0,0,0,0,0,0,0,0,0,0,0,0,0,0,0,0,0,0,0,0,0,0,0,0,0,0,0,0,0,0,0,0,0,0,0,0,0,0],"id":22,"left_children":[1,3,5,7,9,11,13,-1,15,17,19,21,23,25,27,-1,-1,29,31,33,35,37,39,41,43,45,47,49,51,53,55,57,59,61,63,65,67,69,-1,71,73,75,77,79,81,83,85,-1,-1,87,-1,89,91,-1,-1,-1,-1,-1,-1,-1,-1,-1,-1,-1,-1,-1,-1,-1,-1,-1,-1,-1,-1,-1,-1,-1,-1,-1,-1,-1,-1,-1,-1,-1,-1,-1,-1,-1,-1,-1,-1,-1,-1],"loss_changes":[8.229574E0,1.0493429E1,2.0995678E1,3.0053806E-1,1.125567E0,4.152363E0,1.5151799E0,0E0,1.27289295E-2,3.3451958E0,9.9780834E-1,7.465981E-1,1.4447517E0,9.057193E-1,1.3557959E0,0E0,0E0,5.9896487E-1,8.554926E-1,5.4648745E-1,1.0312728E0,1.3231933E-1,8.218065E-1,1.0816288E0,5.592077E-1,5.099873E-1,2.4791157E-1,6.653209E-1,1.3885435E0,4.152674E-1,1.3298001E0,6.273298E-1,4.45323E-1,7.6825833E-1,3.2716528E-1,2.2711825E-1,2.599659E-1,4.511386E-2,0E0,4.388377E-2,6.1739683E-2,7.734189E-1,5.2573204E-1,3.0517513E-1,1.3718004E0,2.6026174E-1,3.5267293E-2,0E0,0E0,2.536614E-1,0E0,5.582047E-1,2.7074623E-1,0E0,0E0,0E0,0E0,0E0,0E0,0E0,0E0,0E0,0E0,0E0,0E0,0E0,0E0,0E0,0E0,0E0,0E0,0E0,0E0,0E0,0E0,0E0,0E0,0E0,0E0,0E0,0E0,0E0,0E0,0E0,0E0,0E0,0E0,0E0,0E0,0E0,0E0,0E0,0E0],"parents":[2147483647,0,0,1,1,2,2,3,3,4,4,5,5,6,6,8,8,9,9,10,10,11,11,12,12,13,13,14,14,17,17,18,18,19,19,20,20,21,21,22,22,23,23,24,24,25,25,26,26,27,27,28,28,29,29,30,30,31,31,32,32,33,33,34,34,35,35,36,36,37,37,39,39,40,40,41,41,42,42,43,43,44,44,45,45,46,46,49,49,51,51,52,52],"right_children":[2,4,6,8,10,12,14,-1,16,18,20,22,24,26,28,-1,-1,30,32,34,36,38,40,42,44,46,48,50,52,54,56,58,60,62,64,66,68,70,-1,72,74,76,78,80,82,84,86,-1,-1,88,-1,90,92,-1,-1,-1,-1,-1,-1,-1,-1,-1,-1,-1,-1,-1,-1,-1,-1,-1,-1,-1,-1,-1,-1,-1,-1,-1,-1,-1,-1,-1,-1,-1,-1,-1,-1,-1,-1,-1,-1,-1,-1],"split_conditions":[6.0750366E1,1.798477E1,8.053641E1,1.3495712E1,4.525505E1,6.590475E1,8.4794495E1,1.4454836E-2,1.7100464E1,3.7117725E1,5.48605E1,6.1681686E1,7.642317E1,8.4407486E1,8.660584E1,8.160945E-3,1.1351065E-2,2.2529764E1,4.047612E1,4.871548E1,5.8091103E1,6.1445244E1,6.271885E1,6.856994E1,7.782519E1,8.359922E1,8.459728E1,8.6425476E1,8.8622086E1,2.195288E1,2.8552305E1,3.8572784E1,4.499997E1,4.7570934E1,5.3082268E1,5.51118E1,5.86813E1,6.096376E1,1.1389287E-2,6.193885E1,6.4304596E1,6.80171E1,6.911514E1,7.7027E1,7.861387E1,8.097641E1,8.421207E1,1.2170385E-2,2.4607123E-3,8.609698E1,-2.015342E-2,8.845157E1,8.983318E1,6.8855414E-4,1.0125295E-2,-6.046738E-3,-5.2658375E-4,-6.8041505E-3,-1.336418E-2,-5.0472594E-3,-1.3759387E-2,1.0792074E-4,-6.8351887E-3,2.2246947E-3,-1.3995895E-3,-1.2128112E-2,-5.520924E-3,3.647089E-3,-1.5492018E-3,8.045553E-3,4.246686E-3,-1.4957518E-3,-4.7486643E-3,1.811467E-3,3.7450797E-3,8.965462E-3,-1.0764672E-4,1.8923944E-2,1.1625226E-2,6.393893E-3,-2.457966E-4,1.5441596E-2,4.8385817E-3,-4.8331246E-3,1.394867E-4,-6.626484E-3,-3.2926097E-3,-9.557742E-3,-4.0414925E-3,-1.5477064E-3,8.453603E-3,-6.6405586E-3,-1.4050955E-2],"split_indices":[1,1,1,1,1,1,1,0,1,1,1,1,1,1,1,0,0,1,1,1,1,1,1,1,1,1,1,1,1,1,1,1,1,1,1,1,1,1,0,1,1,1,1,1,1,1,1,0,0,1,0,1,1,0,0,0,0,0,0,0,0,0,0,0,0,0,0,0,0,0,0,0,0,0,0,0,0,0,0,0,0,0,0,0,0,0,0,0,0,0,0,0,0],"split_type":[0,0,0,0,0,0,0,0,0,0,0,0,0,0,0,0,0,0,0,0,0,0,0,0,0,0,0,0,0,0,0,0,0,0,0,0,0,0,0,0,0,0,0,0,0,0,0,0,0,0,0,0,0,0,0,0,0,0,0,0,0,0,0,0,0,0,0,0,0,0,0,0,0,0,0,0,0,0,0,0,0,0,0,0,0,0,0,0,0,0,0,0,0],"sum_hessian":[3.682802E3,1.9261014E3,1.7567006E3,1.2428072E2,1.8018208E3,1.0290625E3,7.276381E2,6.684742E1,5.74333E1,9.74936E2,8.2688477E2,2.8873096E2,7.4033154E2,2.8997522E2,4.3766287E2,4.3564808E1,1.3868493E1,5.844622E2,3.904738E2,4.826449E2,3.4423987E2,5.7516907E1,2.3121405E2,5.1170877E2,2.2862274E2,2.6321548E2,2.6759735E1,1.4089761E2,2.967653E2,8.358989E1,5.0087234E2,1.5571854E2,2.3475525E2,1.7561069E2,3.0703424E2,1.8705336E2,1.571865E2,4.2319294E1,1.5197615E1,5.9804726E1,1.7140932E2,1.3040042E2,3.8130835E2,7.1654686E1,1.5696806E2,2.0591545E2,5.7300034E1,1.3784464E1,1.2975271E1,1.279561E2,1.2941506E1,1.7178082E2,1.2498445E2,7.058301E1,1.3006886E1,1.5949507E2,3.4137726E2,6.9517685E1,8.620086E1,2.195579E2,1.5197343E1,1.15931145E2,5.967954E1,2.2132759E2,8.570663E1,1.4045879E1,1.7300748E2,2.857822E1,1.2860828E2,1.4247434E1,2.807186E1,1.4954355E1,4.4850372E1,8.617925E1,8.523007E1,9.980837E1,3.0592047E1,2.878451E1,3.5252383E2,2.7307503E1,4.4347183E1,4.126939E1,1.1569867E2,2.9929329E1,1.7598611E2,4.367939E1,1.3620642E1,9.8887024E1,2.9069077E1,1.574772E2,1.43036175E1,1.10804016E2,1.4180439E1],"tree_param":{"num_deleted":"0","num_feature":"2","num_nodes":"93","size_leaf_vector":"1"}},{"base_weights":[6.3245045E-3,-1.4516659E0,1.4519109E0,-7.27303E-2,-5.07314E-2,3.1655528E-2,7.291322E-2],"categories":[],"categories_nodes":[],"categories_segments":[],"categories_sizes":[],"default_left":[0,0,0,0,0,0,0],"id":23,"left_children":[1,3,5,-1,-1,-1,-1],"loss_changes":[7.7783916E3,8.8500977E-1,8.717041E0,0E0,0E0,0E0,0E0],"parents":[2147483647,0,0,1,1,2,2],"right_children":[2,4,6,-1,-1,-1,-1],"split_conditions":[1.5185005E1,1.2402389E1,2.4857107E1,-7.27303E-2,-5.07314E-2,3.1655528E-2,7.291322E-2],"split_indices":[0,0,0,0,0,0,0],"split_type":[0,0,0,0,0,0,0],"sum_hessian":[3.68855E3,1.8363942E3,1.8521559E3,1.8218098E3,1.4584403E1,1.5036124E1,1.8371198E3],"tree_param":{"num_deleted":"0","num_feature":"2","num_nodes":"7","size_leaf_vector":"1"}},{"base_weights":[4.4977358E-3,-1.4208987E0,1.4206905E0,-7.1195856E-2,-4.8356593E-2,3.459982E-2,7.134529E-2],"categories":[],"categories_nodes":[],"categories_segments":[],"categories_sizes":[],"default_left":[0,0,0,0,0,0,0],"id":24,"left_children":[1,3,5,-1,-1,-1,-1],"loss_changes":[7.252391E3,1.0751953E0,7.1748047E0,0E0,0E0,0E0,0E0],"parents":[2147483647,0,0,1,1,2,2],"right_children":[2,4,6,-1,-1,-1,-1],"split_conditions":[1.5185005E1,1.2402389E1,2.4857107E1,-7.1195856E-2,-4.8356593E-2,3.459982E-2,7.134529E-2],"split_indices":[0,0,0,0,0,0,0],"split_type":[0,0,0,0,0,0,0],"sum_hessian":[3.5907183E3,1.7895425E3,1.8011758E3,1.7755935E3,1.3948947E1,1.618297E1,1.7849928E3],"tree_param":{"num_deleted":"0","num_feature":"2","num_nodes":"7","size_leaf_vector":"1"}},{"base_weights":[-1.1272061E-3,1.3989683E-2,-1.2110816E-1,-3.4040917E-2,8.326211E-2,-9.053948E-2,-1.8983035E-1,1.2286742E-1,-5.5183414E-2,1.0994748E-1,7.2290846E-3,-1.2210547E-1,-4.3854095E-2,-1.6504915E-2,-1.5133782E-1,2.0213321E-1,7.4502036E-2,-8.503203E-2,-3.07003E-2,4.327424E-2,1.3550498E-1,2.9536521E-2,-3.7064016E-2,-1.0561117E-1,-1.558461E-2,6.826373E-2,-7.960576E-2,-1.1469619E-1,-1.1960017E-2,1.539142E-1,2.2420196E-1,4.7245637E-2,1.3619111E-1,-5.4002397E-2,-1.5792522E-1,1.301449E-1,-3.876855E-2,7.787752E-2,5.28545E-3,1.549117E-1,8.531164E-2,-3.085179E-3,3.590849E-2,-1.03509E-1,2.8844025E-2,-1.3267241E-1,-2.9905958E-2,-1.11446774E-4,6.945491E-3,-1.0265486E-2,-5.368613E-2,-9.764268E-3,1.2424809E-2,9.9730445E-3,5.1060817E-3,1.4737263E-2,9.758023E-3,2.993807E-3,-1.2777306E-3,1.410523E-2,3.157229E-3,-3.0113342E-3,7.3169074E-3,-1.4217222E-2,-5.7189167E-3,9.179872E-3,4.8540905E-3,-7.569735E-3,-1.4220371E-3,3.0817103E-3,7.719997E-3,-7.7742347E-3,1.3364669E-3,5.9460867E-3,9.514096E-3,-1.0721634E-2,5.4061264E-3,3.6239473E-3,8.7965326E-4,-7.677544E-3,-4.216514E-3,2.5399083E-3,2.780641E-4,-4.337046E-3,-1.3182043E-2,2.1966086E-3,-8.008628E-3,-9.6386475E-6,-4.4239643E-3,7.370965E-3,-5.546922E-3],"categories":[],"categories_nodes":[],"categories_segments":[],"categories_sizes":[],"default_left":[0,0,0,0,0,0,0,0,0,0,0,0,0,0,0,0,0,0,0,0,0,0,0,0,0,0,0,0,0,0,0,0,0,0,0,0,0,0,0,0,0,0,0,0,0,0,0,0,0,0,0,0,0,0,0,0,0,0,0,0,0,0,0,0,0,0,0,0,0,0,0,0,0,0,0,0,0,0,0,0,0,0,0,0,0,0,0,0,0,0,0],"id":25,"left_children":[1,3,5,7,9,11,13,15,17,19,21,23,25,-1,27,29,31,33,35,37,39,41,43,45,-1,47,49,51,-1,53,55,57,59,61,63,65,67,69,71,73,75,-1,77,79,81,83,85,-1,-1,-1,87,-1,89,-1,-1,-1,-1,-1,-1,-1,-1,-1,-1,-1,-1,-1,-1,-1,-1,-1,-1,-1,-1,-1,-1,-1,-1,-1,-1,-1,-1,-1,-1,-1,-1,-1,-1,-1,-1,-1,-1],"loss_changes":[6.312632E0,1.0287435E1,8.009429E-1,6.06481E0,2.5677853E0,3.946879E-1,5.924878E-1,8.1743646E-1,1.1739335E0,1.5907803E0,3.271111E-1,4.7177935E-1,4.506281E-1,0E0,2.790935E-1,5.2437067E-2,2.2298896E-1,1.6311378E0,1.1549003E0,3.4283376E-1,6.461296E-1,1.301159E-1,4.8890644E-1,3.0331242E-1,0E0,1.3672037E-1,2.6486164E-1,7.104548E-1,0E0,4.767126E-2,5.282259E-2,8.9953944E-2,4.221819E-1,6.4476275E-1,1.15621E0,5.737841E-2,9.7799253E-1,1.6024154E-1,4.3696484E-1,5.9720707E-1,1.3288785E0,0E0,1.3688242E-1,4.0290236E-2,2.8590947E-2,6.400609E-1,3.9935607E-1,0E0,0E0,0E0,1.3315769E-1,0E0,4.785692E-1,0E0,0E0,0E0,0E0,0E0,0E0,0E0,0E0,0E0,0E0,0E0,0E0,0E0,0E0,0E0,0E0,0E0,0E0,0E0,0E0,0E0,0E0,0E0,0E0,0E0,0E0,0E0,0E0,0E0,0E0,0E0,0E0,0E0,0E0,0E0,0E0,0E0,0E0],"parents":[2147483647,0,0,1,1,2,2,3,3,4,4,5,5,6,6,7,7,8,8,9,9,10,10,11,11,12,12,14,14,15,15,16,16,17,17,18,18,19,19,20,20,21,21,22,22,23,23,25,25,26,26,27,27,29,29,30,30,31,31,32,32,33,33,34,34,35,35,36,36,37,37,38,38,39,39,40,40,42,42,43,43,44,44,45,45,46,46,50,50,52,52],"right_children":[2,4,6,8,10,12,14,16,18,20,22,24,26,-1,28,30,32,34,36,38,40,42,44,46,-1,48,50,52,-1,54,56,58,60,62,64,66,68,70,72,74,76,-1,78,80,82,84,86,-1,-1,-1,88,-1,90,-1,-1,-1,-1,-1,-1,-1,-1,-1,-1,-1,-1,-1,-1,-1,-1,-1,-1,-1,-1,-1,-1,-1,-1,-1,-1,-1,-1,-1,-1,-1,-1,-1,-1,-1,-1,-1,-1],"split_conditions":[8.521445E1,6.096376E1,8.8622086E1,2.3122421E1,8.00483E1,8.726934E1,8.892558E1,1.4590286E1,4.3132706E1,6.590475E1,8.359922E1,8.7139656E1,8.76026E1,-1.6504915E-2,8.969376E1,8.48497E0,2.1230087E1,3.830886E1,4.4105907E1,6.3461224E1,7.642317E1,8.027205E1,8.4407486E1,8.660584E1,-1.558461E-2,8.745298E1,8.773898E1,8.9390396E1,-1.1960017E-2,6.3677673E0,1.0533996E1,2.0511597E1,2.195288E1,3.805379E1,3.9585484E1,4.346643E1,4.5548615E1,6.299563E1,6.3748924E1,7.119612E1,7.67545E1,-3.085179E-3,8.141104E1,8.381744E1,8.4794495E1,8.6240326E1,8.6961296E1,-1.11446774E-4,6.945491E-3,-1.0265486E-2,8.81202E1,-9.764268E-3,8.953215E1,9.9730445E-3,5.1060817E-3,1.4737263E-2,9.758023E-3,2.993807E-3,-1.2777306E-3,1.410523E-2,3.157229E-3,-3.0113342E-3,7.3169074E-3,-1.4217222E-2,-5.7189167E-3,9.179872E-3,4.8540905E-3,-7.569735E-3,-1.4220371E-3,3.0817103E-3,7.719997E-3,-7.7742347E-3,1.3364669E-3,5.9460867E-3,9.514096E-3,-1.0721634E-2,5.4061264E-3,3.6239473E-3,8.7965326E-4,-7.677544E-3,-4.216514E-3,2.5399083E-3,2.780641E-4,-4.337046E-3,-1.3182043E-2,2.1966086E-3,-8.008628E-3,-9.6386475E-6,-4.4239643E-3,7.370965E-3,-5.546922E-3],"split_indices":[1,1,1,1,1,1,1,1,1,1,1,1,1,0,1,1,1,1,1,1,1,1,1,1,0,1,1,1,0,1,1,1,1,1,1,1,1,1,1,1,1,0,1,1,1,1,1,0,0,0,1,0,1,0,0,0,0,0,0,0,0,0,0,0,0,0,0,0,0,0,0,0,0,0,0,0,0,0,0,0,0,0,0,0,0,0,0,0,0,0,0],"split_type":[0,0,0,0,0,0,0,0,0,0,0,0,0,0,0,0,0,0,0,0,0,0,0,0,0,0,0,0,0,0,0,0,0,0,0,0,0,0,0,0,0,0,0,0,0,0,0,0,0,0,0,0,0,0,0,0,0,0,0,0,0,0,0,0,0,0,0,0,0,0,0,0,0,0,0,0,0,0,0,0,0,0,0,0,0,0,0,0,0,0,0],"sum_hessian":[3.4785186E3,3.0900713E3,3.884473E2,1.8251189E3,1.2649525E3,2.7046002E2,1.17987274E2,2.161509E2,1.608968E3,9.359983E2,3.289542E2,1.6039473E2,1.1006528E2,2.3774961E1,9.421232E1,8.070485E1,1.3544604E2,7.2392316E2,8.8504486E2,2.6011508E2,6.7588324E2,2.189946E2,1.099596E2,1.489895E2,1.1405227E1,2.6391548E1,8.367373E1,6.811251E1,2.6099806E1,2.7843227E1,5.2861618E1,9.516478E1,4.0281265E1,5.089927E2,2.1493044E2,4.1551956E1,8.434929E2,1.3557361E2,1.2454147E2,4.859208E2,1.899624E2,1.3728784E1,2.0526582E2,5.4472656E1,5.5486946E1,1.0920212E2,3.9787388E1,1.3694869E1,1.2696679E1,1.3120664E1,7.055306E1,4.1357464E1,2.6755045E1,1.329786E1,1.4545368E1,1.2747703E1,4.011392E1,8.124644E1,1.3918343E1,1.2483325E1,2.7797941E1,4.9433383E2,1.4658846E1,5.3650425E1,1.6128001E2,1.4139661E1,2.7412294E1,6.970385E1,7.7378906E2,1.1332392E2,2.2249681E1,1.392106E1,1.10620415E2,2.4301251E2,2.4290831E2,1.2839942E1,1.7712245E2,6.751038E1,1.3775543E2,1.3151345E1,4.1321312E1,2.7950045E1,2.7536901E1,8.2078835E1,2.7123287E1,2.581666E1,1.3970729E1,2.820079E1,4.2352272E1,1.2682156E1,1.4072889E1],"tree_param":{"num_deleted":"0","num_feature":"2","num_nodes":"91","size_leaf_vector":"1"}},{"base_weights":[-5.193437E-3,-1.3913596E0,1.3893408E0,-6.969071E-2,-5.095452E-2,2.9992107E-2,6.981713E-2],"categories":[],"categories_nodes":[],"categories_segments":[],"categories_sizes":[],"default_left":[0,0,0,0,0,0,0],"id":26,"left_children":[1,3,5,-1,-1,-1,-1],"loss_changes":[6.73972E3,1.772461E-1,8.77002E0,0E0,0E0,0E0,0E0],"parents":[2147483647,0,0,1,1,2,2],"right_children":[2,4,6,-1,-1,-1,-1],"split_conditions":[1.5185005E1,1.2402389E1,2.4857107E1,-6.969071E-2,-5.095452E-2,2.9992107E-2,6.981713E-2],"split_indices":[0,0,0,0,0,0,0],"split_type":[0,0,0,0,0,0,0],"sum_hessian":[3.4845623E3,1.7475254E3,1.7370369E3,1.7333523E3,1.417312E1,1.6031906E1,1.721005E3],"tree_param":{"num_deleted":"0","num_feature":"2","num_nodes":"7","size_leaf_vector":"1"}},{"base_weights":[2.0410967E-4,1.6368527E-2,-1.17192335E-1,-3.0154305E-2,8.050628E-2,-1.597988E-1,-9.692722E-2,1.5346375E-1,-4.3400537E-2,1.03819735E-1,-3.4540936E-2,-1.4037424E-1,-1.1660543E-2,-3.0134529E-2,-1.4656587E-1,2.0507123E-1,1.251422E-1,-6.595213E-2,-1.2710173E-2,4.723885E-2,1.453201E-1,-7.3470674E-3,-1.8008808E-2,-1.551058E-1,-1.8527907E-3,-1.0352129E-1,2.872845E-2,-1.9101416E-1,-5.9126616E-2,5.007251E-3,1.244134E-2,1.0062327E-1,8.292696E-3,-3.3840004E-2,-1.1402744E-1,-7.2492375E-3,-1.4911978E-1,8.584705E-2,3.4581766E-2,1.959513E-1,6.899674E-2,4.3582316E-3,-2.6166655E-2,-1.3109843E-1,-2.0838982E-1,1.8860249E-2,-1.1410895E-2,8.687429E-2,-1.5208559E-2,-1.3292725E-1,-2.888314E-1,-4.4717463E-3,-1.09496556E-1,5.634733E-3,2.9503652E-3,1.539867E-3,-2.2093211E-3,-1.0629245E-2,-3.0189971E-3,6.096877E-4,-1.3147226E-3,-1.0514315E-2,-3.348505E-3,2.5163933E-3,7.004195E-3,-4.6272515E-3,2.6376513E-3,6.6073537E-3,1.1100429E-2,2.5844187E-3,1.756922E-2,-3.0000126E-3,2.0769738E-4,-7.1517336E-3,-3.8139117E-3,-1.2813552E-2,-7.414172E-3,3.5745676E-3,-1.6755043E-3,2.9333464E-3,5.4157046E-3,-1.9037655E-3,-1.9247802E-4,-1.56013565E-2,-4.246795E-3,-1.16091035E-2,-1.8663822E-2,4.136054E-5,-4.6824358E-4,-6.6462304E-3,-3.97638E-3],"categories":[],"categories_nodes":[],"categories_segments":[],"categories_sizes":[],"default_left":[0,0,0,0,0,0,0,0,0,0,0,0,0,0,0,0,0,0,0,0,0,0,0,0,0,0,0,0,0,0,0,0,0,0,0,0,0,0,0,0,0,0,0,0,0,0,0,0,0,0,0,0,0,0,0,0,0,0,0,0,0,0,0,0,0,0,0,0,0,0,0,0,0,0,0,0,0,0,0,0,0,0,0,0,0,0,0,0,0,0,0],"id":27,"left_children":[1,3,5,7,9,11,13,15,17,19,21,23,-1,25,27,29,31,33,35,37,39,-1,41,43,-1,45,47,49,51,-1,-1,53,-1,55,57,59,61,63,65,67,69,-1,71,73,75,77,-1,79,81,83,85,87,89,-1,-1,-1,-1,-1,-1,-1,-1,-1,-1,-1,-1,-1,-1,-1,-1,-1,-1,-1,-1,-1,-1,-1,-1,-1,-1,-1,-1,-1,-1,-1,-1,-1,-1,-1,-1,-1,-1],"loss_changes":[6.443444E0,8.907903E0,3.3933163E-1,4.215752E0,3.369689E0,1.539495E-1,9.273348E-1,1.4484978E-1,1.116843E0,2.4440813E0,3.9169627E-1,1.5564442E-1,0E0,5.259721E-1,6.1427236E-1,1.576761E-1,6.106174E-2,1.4328427E0,5.0937665E-1,2.1357495E-1,2.3114853E0,0E0,1.6199043E-1,9.09946E-2,0E0,8.29972E-1,1.7495854E-1,5.6538844E-1,1.5283327E-1,0E0,0E0,1.904869E-2,0E0,3.754455E-1,1.9554353E0,2.4468714E-1,1.1819887E-1,2.0241612E-1,7.796731E-1,5.711193E-1,1.1621702E0,0E0,1.7824964E-1,3.2576323E-2,3.979659E-2,8.0204844E-2,0E0,1.1426747E-2,1.0129985E-2,5.6248486E-1,9.865141E-2,7.2734803E-4,9.74831E-3,0E0,0E0,0E0,0E0,0E0,0E0,0E0,0E0,0E0,0E0,0E0,0E0,0E0,0E0,0E0,0E0,0E0,0E0,0E0,0E0,0E0,0E0,0E0,0E0,0E0,0E0,0E0,0E0,0E0,0E0,0E0,0E0,0E0,0E0,0E0,0E0,0E0,0E0],"parents":[2147483647,0,0,1,1,2,2,3,3,4,4,5,5,6,6,7,7,8,8,9,9,10,10,11,11,13,13,14,14,15,15,16,16,17,17,18,18,19,19,20,20,22,22,23,23,25,25,26,26,27,27,28,28,31,31,33,33,34,34,35,35,36,36,37,37,38,38,39,39,40,40,42,42,43,43,44,44,45,45,47,47,48,48,49,49,50,50,51,51,52,52],"right_children":[2,4,6,8,10,12,14,16,18,20,22,24,-1,26,28,30,32,34,36,38,40,-1,42,44,-1,46,48,50,52,-1,-1,54,-1,56,58,60,62,64,66,68,70,-1,72,74,76,78,-1,80,82,84,86,88,90,-1,-1,-1,-1,-1,-1,-1,-1,-1,-1,-1,-1,-1,-1,-1,-1,-1,-1,-1,-1,-1,-1,